#pragma once
#include <cstdarg>
namespace Eloquent {
    namespace ML {
        namespace Port {
            class SVM {
                public:
                    /**
                    * Predict class for features vector
                    */
                    int predict(float *x) {
                        float kernels[61] = { 0 };
                        float decisions[6] = { 0 };
                        int votes[4] = { 0 };
                        kernels[0] = compute_kernel(x,   102.0  , 148.0  , 120.0  , 104.0  , 154.0  , 121.0  , 100.0  , 157.0  , 125.0  , 102.0  , 150.0  , 122.0  , 99.0  , 158.0  , 123.0  , 99.0  , 152.0  , 121.0  , 98.0  , 153.0  , 123.0  , 97.0  , 155.0  , 127.0  , 97.0  , 151.0  , 122.0  , 98.0  , 152.0  , 126.0  , 94.0  , 149.0  , 123.0  , 92.0  , 151.0  , 123.0  , 97.0  , 155.0  , 124.0  , 105.0  , 148.0  , 121.0  , 111.0  , 148.0  , 124.0  , 109.0  , 141.0  , 121.0  , 113.0  , 141.0  , 119.0  , 141.0  , 142.0  , 117.0  , 153.0  , 141.0  , 115.0  , 175.0  , 140.0  , 120.0  , 166.0  , 139.0  , 121.0  , 162.0  , 137.0  , 122.0  , 188.0  , 138.0  , 116.0  , 209.0  , 134.0  , 115.0  , 194.0  , 132.0  , 116.0  , 210.0  , 133.0  , 116.0  , 195.0  , 130.0  , 117.0  , 204.0  , 133.0  , 116.0  , 209.0  , 134.0  , 116.0  , 194.0  , 133.0  , 115.0  , 203.0  , 129.0  , 116.0  , 193.0  , 128.0  , 118.0  , 221.0  , 132.0  , 117.0  , 211.0  , 131.0  , 116.0  , 209.0  , 131.0  , 115.0  , 233.0  , 130.0  , 117.0  , 227.0  , 129.0  , 117.0  , 206.0  , 135.0  , 118.0  , 204.0  , 133.0  , 121.0  , 213.0  , 129.0  , 121.0  , 207.0  , 131.0  , 122.0  , 199.0  , 128.0  , 125.0  , 207.0  , 132.0  , 128.0  , 200.0  , 133.0  , 130.0  , 189.0  , 132.0  , 126.0  , 194.0  , 131.0  , 125.0  , 188.0  , 128.0  , 126.0  , 190.0  , 135.0  , 139.0  , 198.0  , 131.0  , 143.0  , 202.0  , 134.0  , 149.0  , 207.0  , 131.0  , 148.0  , 199.0  , 132.0  , 157.0  , 185.0  , 132.0  , 149.0  , 202.0  , 133.0  , 146.0  , 186.0  , 130.0  , 143.0  , 196.0  , 132.0  , 173.0  , 262.0  , 128.0  , 185.0  , 271.0  , 129.0  , 198.0  , 248.0  , 133.0  , 216.0  , 255.0  , 140.0  , 215.0  , 264.0  , 143.0  , 202.0  , 252.0  , 139.0  , 193.0  , 247.0  , 140.0  , 184.0  , 262.0  , 142.0  , 173.0  , 258.0  , 143.0  , 182.0  , 248.0  , 142.0  , 198.0  , 239.0  , 164.0  , 205.0  , 232.0  , 173.0  , 224.0  , 239.0  , 179.0  , 225.0  , 255.0  , 234.0  , 301.0  , 311.0  , 241.0  , 277.0  , 297.0  , 262.0  , 262.0  , 286.0  , 269.0  , 284.0  , 280.0  , 264.0  , 297.0  , 315.0  , 254.0  , 339.0  , 350.0  , 266.0  , 323.0  , 339.0  , 294.0  , 312.0  , 319.0  , 292.0  , 318.0  , 306.0  , 307.0  , 331.0  , 285.0  , 340.0  , 336.0  , 306.0  , 321.0  , 324.0  , 313.0  , 347.0  , 329.0  , 293.0  , 341.0  , 329.0  , 297.0  , 323.0  , 332.0  , 326.0  , 340.0  , 336.0  , 334.0  , 320.0  , 321.0  , 316.0  , 313.0  , 320.0  , 293.0  , 312.0  , 353.0  , 292.0  , 329.0  , 360.0  , 280.0  , 332.0  , 365.0 );
                        kernels[1] = compute_kernel(x,   333.0  , 129.0  , 401.0  , 325.0  , 128.0  , 402.0  , 317.0  , 130.0  , 408.0  , 327.0  , 133.0  , 407.0  , 325.0  , 134.0  , 405.0  , 333.0  , 132.0  , 407.0  , 314.0  , 134.0  , 401.0  , 299.0  , 131.0  , 407.0  , 294.0  , 135.0  , 402.0  , 301.0  , 135.0  , 404.0  , 305.0  , 136.0  , 411.0  , 316.0  , 135.0  , 398.0  , 322.0  , 135.0  , 405.0  , 331.0  , 134.0  , 408.0  , 319.0  , 131.0  , 404.0  , 327.0  , 133.0  , 409.0  , 328.0  , 134.0  , 410.0  , 312.0  , 130.0  , 420.0  , 319.0  , 133.0  , 420.0  , 322.0  , 132.0  , 426.0  , 333.0  , 134.0  , 430.0  , 338.0  , 117.0  , 427.0  , 357.0  , 129.0  , 424.0  , 350.0  , 130.0  , 433.0  , 376.0  , 128.0  , 429.0  , 370.0  , 131.0  , 445.0  , 365.0  , 132.0  , 439.0  , 342.0  , 130.0  , 445.0  , 340.0  , 136.0  , 441.0  , 360.0  , 136.0  , 441.0  , 388.0  , 135.0  , 439.0  , 382.0  , 137.0  , 436.0  , 364.0  , 137.0  , 444.0  , 356.0  , 140.0  , 426.0  , 343.0  , 141.0  , 432.0  , 328.0  , 146.0  , 439.0  , 352.0  , 152.0  , 433.0  , 359.0  , 146.0  , 438.0  , 343.0  , 154.0  , 441.0  , 361.0  , 155.0  , 427.0  , 365.0  , 155.0  , 440.0  , 379.0  , 158.0  , 424.0  , 342.0  , 159.0  , 414.0  , 356.0  , 161.0  , 414.0  , 348.0  , 160.0  , 412.0  , 336.0  , 156.0  , 407.0  , 322.0  , 152.0  , 407.0  , 339.0  , 148.0  , 405.0  , 323.0  , 149.0  , 409.0  , 310.0  , 141.0  , 419.0  , 288.0  , 153.0  , 442.0  , 274.0  , 153.0  , 413.0  , 283.0  , 152.0  , 443.0  , 297.0  , 153.0  , 447.0  , 367.0  , 158.0  , 433.0  , 384.0  , 151.0  , 451.0  , 367.0  , 156.0  , 408.0  , 362.0  , 153.0  , 445.0  , 350.0  , 149.0  , 465.0  , 369.0  , 164.0  , 495.0  , 350.0  , 168.0  , 484.0  , 332.0  , 183.0  , 518.0  , 376.0  , 181.0  , 550.0  , 414.0  , 229.0  , 559.0  , 449.0  , 230.0  , 543.0  , 403.0  , 240.0  , 573.0  , 430.0  , 228.0  , 544.0  , 470.0  , 228.0  , 568.0  , 460.0  , 219.0  , 559.0  , 451.0  , 219.0  , 555.0  , 451.0  , 225.0  , 562.0  , 444.0  , 211.0  , 560.0  , 458.0  , 229.0  , 591.0  , 531.0  , 218.0  , 581.0  , 513.0  , 229.0  , 605.0  , 480.0  , 219.0  , 630.0  , 528.0  , 215.0  , 631.0  , 566.0  , 210.0  , 610.0  , 532.0  , 237.0  , 612.0  , 531.0  , 285.0  , 603.0  , 544.0  , 287.0  , 617.0  , 650.0  , 272.0  , 585.0  , 644.0  , 258.0  , 568.0  , 607.0  , 292.0  , 543.0  , 602.0  , 329.0  , 555.0  , 586.0  , 317.0  , 556.0  , 608.0  , 312.0  , 588.0  , 659.0  , 301.0  , 612.0  , 634.0  , 290.0  , 607.0  , 610.0  , 336.0  , 570.0 );
                        kernels[2] = compute_kernel(x,   92.0  , 156.0  , 147.0  , 91.0  , 153.0  , 146.0  , 97.0  , 155.0  , 146.0  , 96.0  , 154.0  , 163.0  , 104.0  , 151.0  , 150.0  , 110.0  , 155.0  , 151.0  , 116.0  , 156.0  , 150.0  , 116.0  , 154.0  , 148.0  , 137.0  , 156.0  , 149.0  , 168.0  , 152.0  , 149.0  , 161.0  , 156.0  , 147.0  , 173.0  , 154.0  , 150.0  , 192.0  , 158.0  , 150.0  , 194.0  , 160.0  , 152.0  , 230.0  , 159.0  , 155.0  , 217.0  , 159.0  , 156.0  , 225.0  , 158.0  , 154.0  , 220.0  , 161.0  , 152.0  , 209.0  , 164.0  , 158.0  , 195.0  , 159.0  , 153.0  , 207.0  , 165.0  , 157.0  , 206.0  , 161.0  , 157.0  , 197.0  , 161.0  , 164.0  , 221.0  , 162.0  , 167.0  , 227.0  , 159.0  , 171.0  , 233.0  , 161.0  , 170.0  , 222.0  , 156.0  , 170.0  , 219.0  , 158.0  , 174.0  , 209.0  , 162.0  , 180.0  , 208.0  , 158.0  , 178.0  , 200.0  , 160.0  , 182.0  , 210.0  , 163.0  , 183.0  , 222.0  , 159.0  , 192.0  , 214.0  , 159.0  , 200.0  , 206.0  , 157.0  , 202.0  , 223.0  , 159.0  , 197.0  , 222.0  , 158.0  , 194.0  , 220.0  , 162.0  , 197.0  , 225.0  , 166.0  , 216.0  , 237.0  , 162.0  , 224.0  , 244.0  , 164.0  , 251.0  , 243.0  , 163.0  , 242.0  , 236.0  , 162.0  , 269.0  , 227.0  , 162.0  , 284.0  , 228.0  , 158.0  , 316.0  , 216.0  , 156.0  , 331.0  , 205.0  , 154.0  , 360.0  , 201.0  , 151.0  , 359.0  , 201.0  , 147.0  , 348.0  , 186.0  , 145.0  , 322.0  , 187.0  , 146.0  , 293.0  , 176.0  , 145.0  , 289.0  , 175.0  , 147.0  , 271.0  , 190.0  , 142.0  , 249.0  , 196.0  , 145.0  , 242.0  , 219.0  , 144.0  , 253.0  , 205.0  , 140.0  , 229.0  , 201.0  , 142.0  , 222.0  , 222.0  , 140.0  , 215.0  , 242.0  , 139.0  , 241.0  , 257.0  , 140.0  , 243.0  , 251.0  , 137.0  , 237.0  , 243.0  , 138.0  , 233.0  , 265.0  , 140.0  , 218.0  , 282.0  , 141.0  , 225.0  , 293.0  , 144.0  , 231.0  , 294.0  , 147.0  , 242.0  , 284.0  , 142.0  , 246.0  , 294.0  , 146.0  , 255.0  , 308.0  , 146.0  , 251.0  , 288.0  , 145.0  , 278.0  , 315.0  , 140.0  , 297.0  , 301.0  , 144.0  , 318.0  , 290.0  , 142.0  , 311.0  , 287.0  , 148.0  , 296.0  , 295.0  , 157.0  , 300.0  , 313.0  , 158.0  , 298.0  , 292.0  , 186.0  , 285.0  , 302.0  , 218.0  , 277.0  , 300.0  , 209.0  , 252.0  , 295.0  , 207.0  , 237.0  , 276.0  , 209.0  , 221.0  , 285.0  , 209.0  , 215.0  , 257.0  , 226.0  , 224.0  , 281.0  , 246.0  , 226.0  , 285.0  , 254.0  , 225.0  , 273.0  , 269.0  , 243.0  , 265.0  , 264.0  , 243.0  , 249.0  , 257.0  , 250.0  , 242.0  , 252.0  , 255.0 );
                        kernels[3] = compute_kernel(x,   350.0  , 274.0  , 383.0  , 336.0  , 266.0  , 405.0  , 326.0  , 285.0  , 372.0  , 332.0  , 293.0  , 370.0  , 309.0  , 277.0  , 390.0  , 312.0  , 295.0  , 381.0  , 299.0  , 300.0  , 364.0  , 290.0  , 285.0  , 376.0  , 276.0  , 285.0  , 359.0  , 263.0  , 297.0  , 379.0  , 263.0  , 296.0  , 394.0  , 321.0  , 298.0  , 376.0  , 334.0  , 321.0  , 393.0  , 319.0  , 324.0  , 426.0  , 325.0  , 317.0  , 392.0  , 300.0  , 318.0  , 419.0  , 302.0  , 357.0  , 422.0  , 294.0  , 351.0  , 404.0  , 309.0  , 338.0  , 426.0  , 322.0  , 353.0  , 428.0  , 303.0  , 342.0  , 468.0  , 328.0  , 323.0  , 496.0  , 327.0  , 365.0  , 487.0  , 296.0  , 353.0  , 450.0  , 281.0  , 341.0  , 453.0  , 268.0  , 344.0  , 443.0  , 290.0  , 336.0  , 441.0  , 299.0  , 334.0  , 474.0  , 286.0  , 333.0  , 455.0  , 262.0  , 325.0  , 451.0  , 247.0  , 309.0  , 484.0  , 254.0  , 298.0  , 452.0  , 352.0  , 324.0  , 449.0  , 355.0  , 328.0  , 453.0  , 367.0  , 313.0  , 452.0  , 413.0  , 301.0  , 468.0  , 397.0  , 283.0  , 472.0  , 360.0  , 292.0  , 517.0  , 346.0  , 287.0  , 539.0  , 348.0  , 284.0  , 578.0  , 359.0  , 288.0  , 551.0  , 353.0  , 287.0  , 520.0  , 334.0  , 272.0  , 516.0  , 333.0  , 287.0  , 507.0  , 354.0  , 283.0  , 498.0  , 345.0  , 289.0  , 546.0  , 330.0  , 288.0  , 526.0  , 340.0  , 298.0  , 564.0  , 345.0  , 312.0  , 534.0  , 324.0  , 325.0  , 543.0  , 338.0  , 351.0  , 527.0  , 353.0  , 360.0  , 488.0  , 347.0  , 323.0  , 484.0  , 318.0  , 327.0  , 466.0  , 322.0  , 313.0  , 435.0  , 302.0  , 335.0  , 437.0  , 306.0  , 319.0  , 411.0  , 306.0  , 295.0  , 424.0  , 311.0  , 282.0  , 438.0  , 316.0  , 269.0  , 398.0  , 346.0  , 278.0  , 429.0  , 349.0  , 293.0  , 428.0  , 326.0  , 277.0  , 427.0  , 330.0  , 263.0  , 452.0  , 318.0  , 267.0  , 458.0  , 308.0  , 277.0  , 435.0  , 334.0  , 273.0  , 430.0  , 343.0  , 281.0  , 423.0  , 332.0  , 278.0  , 406.0  , 307.0  , 281.0  , 409.0  , 312.0  , 266.0  , 402.0  , 334.0  , 296.0  , 382.0  , 324.0  , 277.0  , 359.0  , 294.0  , 266.0  , 387.0  , 280.0  , 263.0  , 375.0  , 287.0  , 307.0  , 359.0  , 267.0  , 289.0  , 342.0  , 264.0  , 285.0  , 352.0  , 272.0  , 275.0  , 360.0  , 273.0  , 281.0  , 372.0  , 293.0  , 275.0  , 383.0  , 281.0  , 292.0  , 354.0  , 291.0  , 293.0  , 341.0  , 274.0  , 303.0  , 349.0  , 289.0  , 302.0  , 344.0  , 270.0  , 300.0  , 367.0  , 251.0  , 311.0  , 333.0  , 242.0  , 302.0  , 336.0  , 241.0  , 284.0  , 341.0  , 269.0  , 309.0  , 319.0 );
                        kernels[4] = compute_kernel(x,   110.0  , 226.0  , 152.0  , 108.0  , 228.0  , 153.0  , 135.0  , 235.0  , 156.0  , 180.0  , 232.0  , 161.0  , 178.0  , 241.0  , 162.0  , 189.0  , 234.0  , 156.0  , 181.0  , 235.0  , 155.0  , 206.0  , 240.0  , 159.0  , 193.0  , 236.0  , 159.0  , 188.0  , 244.0  , 159.0  , 187.0  , 243.0  , 153.0  , 216.0  , 243.0  , 153.0  , 230.0  , 245.0  , 155.0  , 219.0  , 247.0  , 153.0  , 232.0  , 253.0  , 147.0  , 229.0  , 249.0  , 149.0  , 218.0  , 247.0  , 143.0  , 210.0  , 251.0  , 115.0  , 209.0  , 248.0  , 144.0  , 216.0  , 246.0  , 175.0  , 221.0  , 249.0  , 171.0  , 204.0  , 242.0  , 181.0  , 188.0  , 247.0  , 189.0  , 197.0  , 247.0  , 188.0  , 209.0  , 243.0  , 185.0  , 219.0  , 238.0  , 195.0  , 224.0  , 243.0  , 226.0  , 237.0  , 249.0  , 218.0  , 232.0  , 238.0  , 244.0  , 223.0  , 229.0  , 275.0  , 243.0  , 235.0  , 259.0  , 272.0  , 235.0  , 277.0  , 278.0  , 243.0  , 278.0  , 313.0  , 244.0  , 302.0  , 319.0  , 250.0  , 341.0  , 362.0  , 247.0  , 332.0  , 359.0  , 241.0  , 330.0  , 334.0  , 256.0  , 367.0  , 346.0  , 249.0  , 384.0  , 329.0  , 248.0  , 379.0  , 308.0  , 247.0  , 381.0  , 439.0  , 255.0  , 490.0  , 430.0  , 280.0  , 464.0  , 461.0  , 293.0  , 445.0  , 445.0  , 315.0  , 452.0  , 447.0  , 317.0  , 441.0  , 420.0  , 311.0  , 426.0  , 510.0  , 327.0  , 432.0  , 497.0  , 313.0  , 476.0  , 480.0  , 346.0  , 467.0  , 502.0  , 340.0  , 489.0  , 512.0  , 347.0  , 497.0  , 542.0  , 352.0  , 525.0  , 504.0  , 334.0  , 533.0  , 483.0  , 329.0  , 525.0  , 465.0  , 323.0  , 499.0  , 470.0  , 328.0  , 488.0  , 439.0  , 325.0  , 484.0  , 412.0  , 342.0  , 474.0  , 402.0  , 342.0  , 484.0  , 385.0  , 321.0  , 442.0  , 376.0  , 299.0  , 418.0  , 354.0  , 313.0  , 388.0  , 362.0  , 313.0  , 374.0  , 336.0  , 316.0  , 389.0  , 322.0  , 292.0  , 387.0  , 336.0  , 311.0  , 361.0  , 336.0  , 309.0  , 336.0  , 330.0  , 312.0  , 340.0  , 328.0  , 301.0  , 332.0  , 333.0  , 288.0  , 317.0  , 315.0  , 334.0  , 308.0  , 304.0  , 342.0  , 297.0  , 306.0  , 337.0  , 293.0  , 331.0  , 325.0  , 304.0  , 326.0  , 320.0  , 311.0  , 324.0  , 331.0  , 308.0  , 298.0  , 314.0  , 309.0  , 307.0  , 311.0  , 312.0  , 292.0  , 296.0  , 307.0  , 271.0  , 285.0  , 325.0  , 268.0  , 287.0  , 339.0  , 264.0  , 286.0  , 321.0  , 246.0  , 261.0  , 301.0  , 285.0  , 269.0  , 294.0  , 276.0  , 306.0  , 325.0  , 282.0  , 303.0  , 305.0  , 268.0  , 298.0  , 290.0  , 257.0  , 289.0  , 286.0  , 257.0  , 283.0  , 275.0 );
                        kernels[5] = compute_kernel(x,   66.0  , 133.0  , 120.0  , 65.0  , 131.0  , 122.0  , 64.0  , 130.0  , 123.0  , 65.0  , 133.0  , 122.0  , 65.0  , 131.0  , 126.0  , 65.0  , 129.0  , 119.0  , 66.0  , 132.0  , 124.0  , 66.0  , 131.0  , 125.0  , 66.0  , 132.0  , 121.0  , 66.0  , 131.0  , 125.0  , 64.0  , 129.0  , 121.0  , 63.0  , 131.0  , 122.0  , 63.0  , 132.0  , 121.0  , 67.0  , 132.0  , 119.0  , 73.0  , 133.0  , 118.0  , 71.0  , 130.0  , 115.0  , 70.0  , 129.0  , 115.0  , 76.0  , 131.0  , 118.0  , 78.0  , 130.0  , 117.0  , 81.0  , 133.0  , 126.0  , 93.0  , 131.0  , 126.0  , 94.0  , 130.0  , 126.0  , 95.0  , 131.0  , 125.0  , 110.0  , 131.0  , 126.0  , 105.0  , 132.0  , 127.0  , 120.0  , 134.0  , 123.0  , 128.0  , 130.0  , 146.0  , 123.0  , 130.0  , 123.0  , 118.0  , 134.0  , 120.0  , 137.0  , 131.0  , 119.0  , 130.0  , 134.0  , 116.0  , 125.0  , 131.0  , 109.0  , 127.0  , 133.0  , 119.0  , 133.0  , 133.0  , 118.0  , 134.0  , 133.0  , 117.0  , 132.0  , 136.0  , 120.0  , 132.0  , 134.0  , 124.0  , 127.0  , 133.0  , 124.0  , 127.0  , 135.0  , 128.0  , 122.0  , 134.0  , 129.0  , 130.0  , 138.0  , 131.0  , 130.0  , 135.0  , 131.0  , 132.0  , 137.0  , 137.0  , 139.0  , 139.0  , 148.0  , 163.0  , 138.0  , 151.0  , 153.0  , 138.0  , 150.0  , 149.0  , 135.0  , 150.0  , 142.0  , 140.0  , 153.0  , 152.0  , 136.0  , 159.0  , 190.0  , 137.0  , 162.0  , 182.0  , 134.0  , 165.0  , 189.0  , 133.0  , 159.0  , 197.0  , 135.0  , 172.0  , 190.0  , 133.0  , 174.0  , 209.0  , 132.0  , 181.0  , 207.0  , 132.0  , 190.0  , 199.0  , 131.0  , 195.0  , 182.0  , 131.0  , 189.0  , 222.0  , 130.0  , 189.0  , 244.0  , 132.0  , 195.0  , 246.0  , 131.0  , 214.0  , 245.0  , 131.0  , 247.0  , 282.0  , 131.0  , 287.0  , 279.0  , 132.0  , 299.0  , 292.0  , 129.0  , 314.0  , 278.0  , 132.0  , 308.0  , 329.0  , 139.0  , 292.0  , 342.0  , 143.0  , 284.0  , 360.0  , 162.0  , 303.0  , 386.0  , 190.0  , 335.0  , 409.0  , 185.0  , 378.0  , 427.0  , 235.0  , 453.0  , 451.0  , 273.0  , 439.0  , 439.0  , 263.0  , 495.0  , 407.0  , 279.0  , 511.0  , 380.0  , 295.0  , 528.0  , 395.0  , 306.0  , 522.0  , 417.0  , 320.0  , 541.0  , 494.0  , 348.0  , 514.0  , 484.0  , 347.0  , 501.0  , 522.0  , 375.0  , 524.0  , 545.0  , 356.0  , 473.0  , 555.0  , 334.0  , 464.0  , 541.0  , 321.0  , 438.0  , 509.0  , 341.0  , 433.0  , 462.0  , 330.0  , 425.0  , 478.0  , 315.0  , 391.0  , 459.0  , 304.0  , 387.0  , 427.0  , 315.0  , 358.0  , 401.0  , 325.0  , 358.0 );
                        kernels[6] = compute_kernel(x,   58.0  , 162.0  , 137.0  , 57.0  , 163.0  , 133.0  , 55.0  , 162.0  , 131.0  , 58.0  , 162.0  , 130.0  , 60.0  , 169.0  , 133.0  , 56.0  , 164.0  , 134.0  , 59.0  , 165.0  , 131.0  , 59.0  , 165.0  , 129.0  , 60.0  , 170.0  , 128.0  , 64.0  , 166.0  , 131.0  , 61.0  , 159.0  , 132.0  , 64.0  , 163.0  , 130.0  , 63.0  , 155.0  , 146.0  , 65.0  , 156.0  , 154.0  , 67.0  , 160.0  , 148.0  , 69.0  , 157.0  , 160.0  , 68.0  , 157.0  , 167.0  , 66.0  , 152.0  , 165.0  , 67.0  , 155.0  , 175.0  , 66.0  , 154.0  , 169.0  , 64.0  , 154.0  , 190.0  , 65.0  , 153.0  , 195.0  , 65.0  , 149.0  , 192.0  , 72.0  , 153.0  , 184.0  , 108.0  , 151.0  , 179.0  , 130.0  , 152.0  , 171.0  , 133.0  , 150.0  , 164.0  , 131.0  , 150.0  , 156.0  , 165.0  , 152.0  , 162.0  , 179.0  , 150.0  , 162.0  , 173.0  , 149.0  , 162.0  , 200.0  , 157.0  , 157.0  , 197.0  , 149.0  , 160.0  , 210.0  , 153.0  , 154.0  , 294.0  , 155.0  , 166.0  , 286.0  , 153.0  , 165.0  , 286.0  , 161.0  , 160.0  , 280.0  , 158.0  , 158.0  , 285.0  , 153.0  , 154.0  , 333.0  , 163.0  , 150.0  , 352.0  , 160.0  , 149.0  , 322.0  , 164.0  , 148.0  , 294.0  , 162.0  , 141.0  , 289.0  , 163.0  , 167.0  , 297.0  , 166.0  , 185.0  , 321.0  , 162.0  , 191.0  , 351.0  , 170.0  , 200.0  , 351.0  , 164.0  , 195.0  , 342.0  , 164.0  , 228.0  , 362.0  , 168.0  , 225.0  , 343.0  , 168.0  , 252.0  , 323.0  , 170.0  , 263.0  , 325.0  , 168.0  , 274.0  , 360.0  , 167.0  , 317.0  , 439.0  , 165.0  , 304.0  , 470.0  , 164.0  , 372.0  , 499.0  , 178.0  , 351.0  , 524.0  , 178.0  , 342.0  , 515.0  , 181.0  , 386.0  , 496.0  , 184.0  , 422.0  , 479.0  , 193.0  , 460.0  , 534.0  , 183.0  , 445.0  , 563.0  , 184.0  , 478.0  , 640.0  , 219.0  , 507.0  , 650.0  , 226.0  , 506.0  , 620.0  , 226.0  , 526.0  , 608.0  , 248.0  , 495.0  , 581.0  , 284.0  , 463.0  , 601.0  , 294.0  , 475.0  , 599.0  , 312.0  , 473.0  , 605.0  , 315.0  , 467.0  , 558.0  , 294.0  , 469.0  , 551.0  , 310.0  , 465.0  , 587.0  , 331.0  , 463.0  , 600.0  , 315.0  , 462.0  , 631.0  , 301.0  , 440.0  , 599.0  , 307.0  , 439.0  , 636.0  , 321.0  , 428.0  , 640.0  , 325.0  , 426.0  , 695.0  , 329.0  , 392.0  , 683.0  , 349.0  , 401.0  , 686.0  , 368.0  , 381.0  , 675.0  , 369.0  , 386.0  , 647.0  , 378.0  , 381.0  , 676.0  , 383.0  , 376.0  , 689.0  , 401.0  , 400.0  , 628.0  , 377.0  , 379.0  , 592.0  , 391.0  , 375.0  , 568.0  , 388.0  , 364.0  , 534.0  , 374.0  , 354.0 );
                        kernels[7] = compute_kernel(x,   141.0  , 261.0  , 145.0  , 144.0  , 263.0  , 141.0  , 143.0  , 271.0  , 142.0  , 137.0  , 271.0  , 147.0  , 141.0  , 260.0  , 147.0  , 135.0  , 264.0  , 149.0  , 138.0  , 247.0  , 147.0  , 136.0  , 255.0  , 146.0  , 130.0  , 261.0  , 150.0  , 129.0  , 255.0  , 148.0  , 126.0  , 258.0  , 151.0  , 123.0  , 251.0  , 150.0  , 129.0  , 240.0  , 151.0  , 123.0  , 233.0  , 157.0  , 124.0  , 232.0  , 153.0  , 121.0  , 234.0  , 160.0  , 120.0  , 230.0  , 157.0  , 124.0  , 225.0  , 158.0  , 117.0  , 225.0  , 157.0  , 120.0  , 213.0  , 160.0  , 115.0  , 213.0  , 163.0  , 115.0  , 203.0  , 161.0  , 114.0  , 192.0  , 162.0  , 111.0  , 202.0  , 169.0  , 113.0  , 192.0  , 169.0  , 109.0  , 191.0  , 173.0  , 109.0  , 185.0  , 171.0  , 110.0  , 189.0  , 170.0  , 108.0  , 190.0  , 183.0  , 107.0  , 190.0  , 190.0  , 106.0  , 190.0  , 182.0  , 109.0  , 181.0  , 175.0  , 107.0  , 181.0  , 177.0  , 105.0  , 186.0  , 174.0  , 105.0  , 178.0  , 168.0  , 101.0  , 183.0  , 166.0  , 107.0  , 193.0  , 162.0  , 101.0  , 193.0  , 163.0  , 100.0  , 193.0  , 170.0  , 100.0  , 182.0  , 188.0  , 95.0  , 186.0  , 190.0  , 96.0  , 177.0  , 188.0  , 97.0  , 177.0  , 193.0  , 95.0  , 185.0  , 185.0  , 96.0  , 178.0  , 184.0  , 93.0  , 181.0  , 185.0  , 93.0  , 180.0  , 185.0  , 93.0  , 190.0  , 174.0  , 91.0  , 189.0  , 174.0  , 91.0  , 188.0  , 171.0  , 86.0  , 189.0  , 180.0  , 85.0  , 180.0  , 191.0  , 85.0  , 179.0  , 193.0  , 80.0  , 182.0  , 205.0  , 79.0  , 171.0  , 209.0  , 78.0  , 176.0  , 211.0  , 74.0  , 186.0  , 217.0  , 72.0  , 191.0  , 260.0  , 80.0  , 196.0  , 259.0  , 84.0  , 185.0  , 243.0  , 87.0  , 183.0  , 227.0  , 98.0  , 180.0  , 220.0  , 98.0  , 178.0  , 206.0  , 134.0  , 180.0  , 195.0  , 163.0  , 173.0  , 200.0  , 210.0  , 183.0  , 200.0  , 245.0  , 174.0  , 191.0  , 302.0  , 174.0  , 223.0  , 308.0  , 168.0  , 229.0  , 322.0  , 164.0  , 224.0  , 328.0  , 158.0  , 216.0  , 317.0  , 159.0  , 240.0  , 326.0  , 163.0  , 268.0  , 311.0  , 156.0  , 255.0  , 318.0  , 155.0  , 241.0  , 344.0  , 155.0  , 293.0  , 341.0  , 158.0  , 278.0  , 371.0  , 159.0  , 377.0  , 422.0  , 158.0  , 372.0  , 443.0  , 170.0  , 363.0  , 507.0  , 198.0  , 392.0  , 488.0  , 235.0  , 394.0  , 515.0  , 249.0  , 399.0  , 497.0  , 232.0  , 382.0  , 503.0  , 229.0  , 386.0  , 522.0  , 250.0  , 401.0  , 522.0  , 256.0  , 442.0  , 551.0  , 251.0  , 476.0  , 570.0  , 227.0  , 508.0  , 572.0  , 224.0  , 472.0 );
                        kernels[8] = compute_kernel(x,   96.0  , 236.0  , 258.0  , 97.0  , 234.0  , 257.0  , 93.0  , 235.0  , 263.0  , 96.0  , 224.0  , 261.0  , 96.0  , 235.0  , 276.0  , 96.0  , 244.0  , 258.0  , 96.0  , 235.0  , 258.0  , 94.0  , 224.0  , 243.0  , 94.0  , 207.0  , 236.0  , 95.0  , 230.0  , 223.0  , 95.0  , 249.0  , 213.0  , 97.0  , 245.0  , 202.0  , 94.0  , 247.0  , 192.0  , 96.0  , 250.0  , 203.0  , 99.0  , 254.0  , 208.0  , 99.0  , 245.0  , 213.0  , 100.0  , 226.0  , 239.0  , 99.0  , 225.0  , 243.0  , 97.0  , 215.0  , 308.0  , 100.0  , 217.0  , 287.0  , 97.0  , 206.0  , 296.0  , 102.0  , 210.0  , 327.0  , 102.0  , 211.0  , 300.0  , 106.0  , 217.0  , 314.0  , 109.0  , 215.0  , 289.0  , 106.0  , 208.0  , 267.0  , 107.0  , 199.0  , 255.0  , 111.0  , 188.0  , 245.0  , 109.0  , 201.0  , 292.0  , 106.0  , 210.0  , 285.0  , 152.0  , 202.0  , 262.0  , 155.0  , 207.0  , 248.0  , 165.0  , 212.0  , 242.0  , 158.0  , 191.0  , 231.0  , 161.0  , 189.0  , 217.0  , 179.0  , 186.0  , 222.0  , 181.0  , 180.0  , 214.0  , 171.0  , 177.0  , 205.0  , 171.0  , 187.0  , 190.0  , 165.0  , 186.0  , 180.0  , 160.0  , 186.0  , 174.0  , 182.0  , 185.0  , 173.0  , 184.0  , 180.0  , 168.0  , 184.0  , 172.0  , 161.0  , 177.0  , 173.0  , 163.0  , 171.0  , 166.0  , 162.0  , 160.0  , 166.0  , 156.0  , 163.0  , 160.0  , 148.0  , 170.0  , 161.0  , 150.0  , 187.0  , 160.0  , 151.0  , 204.0  , 153.0  , 147.0  , 194.0  , 171.0  , 146.0  , 237.0  , 175.0  , 215.0  , 234.0  , 172.0  , 214.0  , 229.0  , 190.0  , 225.0  , 289.0  , 180.0  , 265.0  , 290.0  , 175.0  , 268.0  , 273.0  , 188.0  , 244.0  , 292.0  , 215.0  , 274.0  , 347.0  , 213.0  , 270.0  , 379.0  , 201.0  , 273.0  , 387.0  , 223.0  , 254.0  , 375.0  , 264.0  , 290.0  , 364.0  , 276.0  , 340.0  , 372.0  , 278.0  , 341.0  , 379.0  , 285.0  , 334.0  , 532.0  , 265.0  , 382.0  , 525.0  , 283.0  , 373.0  , 467.0  , 272.0  , 362.0  , 477.0  , 318.0  , 350.0  , 457.0  , 309.0  , 363.0  , 429.0  , 313.0  , 389.0  , 448.0  , 303.0  , 372.0  , 464.0  , 314.0  , 415.0  , 459.0  , 306.0  , 436.0  , 508.0  , 329.0  , 431.0  , 495.0  , 370.0  , 479.0  , 503.0  , 388.0  , 471.0  , 513.0  , 378.0  , 488.0  , 500.0  , 359.0  , 486.0  , 504.0  , 325.0  , 493.0  , 597.0  , 338.0  , 509.0  , 637.0  , 317.0  , 548.0  , 590.0  , 339.0  , 531.0  , 558.0  , 341.0  , 530.0  , 616.0  , 319.0  , 497.0  , 566.0  , 314.0  , 471.0  , 508.0  , 344.0  , 470.0  , 475.0  , 320.0  , 422.0  , 457.0  , 317.0  , 410.0 );
                        kernels[9] = compute_kernel(x,   100.0  , 191.0  , 153.0  , 97.0  , 186.0  , 151.0  , 92.0  , 198.0  , 156.0  , 93.0  , 191.0  , 158.0  , 100.0  , 196.0  , 160.0  , 92.0  , 202.0  , 166.0  , 99.0  , 201.0  , 167.0  , 94.0  , 212.0  , 173.0  , 93.0  , 212.0  , 176.0  , 90.0  , 210.0  , 180.0  , 86.0  , 218.0  , 181.0  , 89.0  , 218.0  , 186.0  , 126.0  , 225.0  , 200.0  , 122.0  , 223.0  , 199.0  , 118.0  , 229.0  , 204.0  , 116.0  , 236.0  , 212.0  , 119.0  , 236.0  , 206.0  , 122.0  , 244.0  , 210.0  , 138.0  , 241.0  , 217.0  , 144.0  , 243.0  , 220.0  , 143.0  , 251.0  , 226.0  , 142.0  , 247.0  , 219.0  , 135.0  , 253.0  , 235.0  , 135.0  , 251.0  , 236.0  , 165.0  , 252.0  , 245.0  , 157.0  , 262.0  , 251.0  , 152.0  , 253.0  , 252.0  , 163.0  , 263.0  , 260.0  , 154.0  , 256.0  , 254.0  , 163.0  , 260.0  , 259.0  , 176.0  , 267.0  , 261.0  , 176.0  , 266.0  , 258.0  , 178.0  , 271.0  , 275.0  , 201.0  , 271.0  , 286.0  , 225.0  , 273.0  , 298.0  , 217.0  , 283.0  , 289.0  , 202.0  , 281.0  , 286.0  , 232.0  , 290.0  , 287.0  , 234.0  , 288.0  , 276.0  , 240.0  , 291.0  , 326.0  , 226.0  , 297.0  , 311.0  , 215.0  , 291.0  , 311.0  , 204.0  , 299.0  , 306.0  , 212.0  , 292.0  , 301.0  , 225.0  , 287.0  , 309.0  , 255.0  , 296.0  , 359.0  , 268.0  , 290.0  , 351.0  , 271.0  , 289.0  , 383.0  , 277.0  , 288.0  , 373.0  , 265.0  , 289.0  , 357.0  , 269.0  , 292.0  , 333.0  , 272.0  , 282.0  , 336.0  , 289.0  , 287.0  , 332.0  , 278.0  , 281.0  , 347.0  , 270.0  , 279.0  , 346.0  , 246.0  , 279.0  , 344.0  , 251.0  , 271.0  , 365.0  , 278.0  , 261.0  , 350.0  , 260.0  , 255.0  , 330.0  , 250.0  , 258.0  , 336.0  , 273.0  , 241.0  , 338.0  , 271.0  , 235.0  , 372.0  , 270.0  , 224.0  , 364.0  , 383.0  , 224.0  , 365.0  , 396.0  , 213.0  , 355.0  , 398.0  , 205.0  , 396.0  , 436.0  , 201.0  , 391.0  , 428.0  , 200.0  , 361.0  , 454.0  , 186.0  , 381.0  , 438.0  , 181.0  , 377.0  , 448.0  , 180.0  , 356.0  , 500.0  , 181.0  , 357.0  , 469.0  , 181.0  , 340.0  , 463.0  , 176.0  , 342.0  , 470.0  , 172.0  , 356.0  , 487.0  , 173.0  , 355.0  , 507.0  , 169.0  , 360.0  , 540.0  , 166.0  , 388.0  , 492.0  , 164.0  , 402.0  , 526.0  , 167.0  , 401.0  , 498.0  , 164.0  , 375.0  , 543.0  , 163.0  , 366.0  , 578.0  , 160.0  , 352.0  , 619.0  , 170.0  , 344.0  , 663.0  , 212.0  , 331.0  , 658.0  , 226.0  , 345.0  , 652.0  , 227.0  , 346.0  , 655.0  , 221.0  , 348.0  , 648.0  , 215.0  , 355.0  , 598.0  , 229.0  , 342.0 );
                        kernels[10] = compute_kernel(x,   69.0  , 139.0  , 145.0  , 68.0  , 139.0  , 153.0  , 94.0  , 138.0  , 151.0  , 93.0  , 139.0  , 153.0  , 92.0  , 140.0  , 157.0  , 93.0  , 141.0  , 152.0  , 92.0  , 137.0  , 156.0  , 89.0  , 131.0  , 154.0  , 88.0  , 135.0  , 149.0  , 107.0  , 142.0  , 146.0  , 114.0  , 140.0  , 142.0  , 118.0  , 142.0  , 136.0  , 110.0  , 141.0  , 134.0  , 108.0  , 139.0  , 131.0  , 110.0  , 141.0  , 130.0  , 113.0  , 137.0  , 131.0  , 108.0  , 145.0  , 127.0  , 104.0  , 146.0  , 127.0  , 139.0  , 143.0  , 126.0  , 145.0  , 144.0  , 128.0  , 152.0  , 144.0  , 124.0  , 146.0  , 140.0  , 123.0  , 154.0  , 141.0  , 124.0  , 159.0  , 137.0  , 123.0  , 164.0  , 138.0  , 128.0  , 169.0  , 134.0  , 136.0  , 164.0  , 139.0  , 128.0  , 169.0  , 140.0  , 125.0  , 175.0  , 138.0  , 129.0  , 208.0  , 143.0  , 125.0  , 217.0  , 139.0  , 131.0  , 235.0  , 144.0  , 131.0  , 238.0  , 139.0  , 130.0  , 234.0  , 138.0  , 126.0  , 232.0  , 144.0  , 126.0  , 242.0  , 147.0  , 131.0  , 222.0  , 150.0  , 129.0  , 264.0  , 150.0  , 127.0  , 272.0  , 153.0  , 131.0  , 269.0  , 165.0  , 142.0  , 296.0  , 169.0  , 137.0  , 308.0  , 180.0  , 139.0  , 312.0  , 177.0  , 140.0  , 297.0  , 184.0  , 135.0  , 308.0  , 184.0  , 141.0  , 331.0  , 178.0  , 132.0  , 344.0  , 181.0  , 140.0  , 328.0  , 181.0  , 160.0  , 345.0  , 185.0  , 205.0  , 352.0  , 191.0  , 213.0  , 328.0  , 192.0  , 228.0  , 315.0  , 197.0  , 258.0  , 333.0  , 203.0  , 247.0  , 327.0  , 205.0  , 267.0  , 310.0  , 205.0  , 268.0  , 299.0  , 201.0  , 268.0  , 291.0  , 193.0  , 311.0  , 312.0  , 213.0  , 329.0  , 316.0  , 211.0  , 347.0  , 334.0  , 211.0  , 321.0  , 354.0  , 212.0  , 337.0  , 332.0  , 258.0  , 322.0  , 371.0  , 267.0  , 340.0  , 379.0  , 249.0  , 329.0  , 374.0  , 293.0  , 360.0  , 413.0  , 302.0  , 411.0  , 390.0  , 290.0  , 423.0  , 452.0  , 279.0  , 425.0  , 484.0  , 285.0  , 391.0  , 512.0  , 322.0  , 398.0  , 499.0  , 333.0  , 367.0  , 573.0  , 325.0  , 380.0  , 647.0  , 344.0  , 378.0  , 612.0  , 355.0  , 361.0  , 593.0  , 351.0  , 360.0  , 588.0  , 358.0  , 343.0  , 590.0  , 378.0  , 317.0  , 587.0  , 407.0  , 301.0  , 577.0  , 419.0  , 284.0  , 602.0  , 384.0  , 283.0  , 579.0  , 408.0  , 285.0  , 591.0  , 382.0  , 294.0  , 582.0  , 375.0  , 280.0  , 592.0  , 363.0  , 317.0  , 574.0  , 330.0  , 318.0  , 550.0  , 334.0  , 326.0  , 566.0  , 315.0  , 313.0  , 547.0  , 308.0  , 287.0  , 539.0  , 307.0  , 288.0  , 590.0  , 294.0  , 296.0 );
                        kernels[11] = compute_kernel(x,   377.0  , 159.0  , 221.0  , 373.0  , 161.0  , 231.0  , 399.0  , 163.0  , 241.0  , 413.0  , 171.0  , 250.0  , 417.0  , 173.0  , 267.0  , 432.0  , 177.0  , 265.0  , 446.0  , 173.0  , 286.0  , 492.0  , 172.0  , 271.0  , 483.0  , 174.0  , 271.0  , 481.0  , 165.0  , 270.0  , 447.0  , 184.0  , 259.0  , 426.0  , 191.0  , 243.0  , 410.0  , 208.0  , 234.0  , 417.0  , 227.0  , 262.0  , 411.0  , 245.0  , 257.0  , 398.0  , 240.0  , 281.0  , 476.0  , 247.0  , 278.0  , 443.0  , 253.0  , 297.0  , 422.0  , 298.0  , 306.0  , 412.0  , 321.0  , 362.0  , 424.0  , 313.0  , 386.0  , 447.0  , 299.0  , 385.0  , 447.0  , 290.0  , 385.0  , 429.0  , 296.0  , 382.0  , 404.0  , 274.0  , 367.0  , 419.0  , 303.0  , 393.0  , 431.0  , 319.0  , 394.0  , 437.0  , 295.0  , 365.0  , 447.0  , 284.0  , 360.0  , 418.0  , 274.0  , 368.0  , 407.0  , 290.0  , 354.0  , 391.0  , 298.0  , 334.0  , 407.0  , 309.0  , 338.0  , 391.0  , 297.0  , 321.0  , 392.0  , 296.0  , 311.0  , 406.0  , 283.0  , 309.0  , 419.0  , 311.0  , 335.0  , 399.0  , 305.0  , 341.0  , 386.0  , 307.0  , 359.0  , 391.0  , 310.0  , 359.0  , 370.0  , 287.0  , 354.0  , 365.0  , 289.0  , 363.0  , 376.0  , 281.0  , 348.0  , 370.0  , 269.0  , 319.0  , 373.0  , 278.0  , 311.0  , 364.0  , 305.0  , 300.0  , 364.0  , 288.0  , 281.0  , 369.0  , 274.0  , 274.0  , 367.0  , 280.0  , 266.0  , 406.0  , 291.0  , 262.0  , 381.0  , 307.0  , 274.0  , 378.0  , 298.0  , 308.0  , 351.0  , 293.0  , 298.0  , 390.0  , 332.0  , 305.0  , 362.0  , 307.0  , 306.0  , 368.0  , 285.0  , 306.0  , 379.0  , 277.0  , 290.0  , 380.0  , 273.0  , 287.0  , 383.0  , 311.0  , 269.0  , 380.0  , 309.0  , 276.0  , 359.0  , 299.0  , 264.0  , 362.0  , 276.0  , 272.0  , 388.0  , 269.0  , 286.0  , 368.0  , 289.0  , 275.0  , 361.0  , 286.0  , 272.0  , 343.0  , 280.0  , 262.0  , 331.0  , 255.0  , 250.0  , 322.0  , 234.0  , 239.0  , 322.0  , 228.0  , 227.0  , 324.0  , 217.0  , 214.0  , 318.0  , 224.0  , 205.0  , 298.0  , 241.0  , 219.0  , 283.0  , 225.0  , 215.0  , 279.0  , 222.0  , 196.0  , 264.0  , 221.0  , 195.0  , 242.0  , 223.0  , 207.0  , 222.0  , 240.0  , 214.0  , 220.0  , 280.0  , 239.0  , 224.0  , 277.0  , 238.0  , 283.0  , 260.0  , 231.0  , 284.0  , 248.0  , 227.0  , 268.0  , 243.0  , 222.0  , 266.0  , 248.0  , 212.0  , 255.0  , 244.0  , 222.0  , 246.0  , 227.0  , 212.0  , 240.0  , 217.0  , 207.0  , 254.0  , 226.0  , 197.0  , 283.0  , 219.0  , 209.0  , 264.0  , 232.0  , 210.0  , 244.0  , 227.0  , 227.0 );
                        kernels[12] = compute_kernel(x,   69.0  , 167.0  , 133.0  , 71.0  , 171.0  , 137.0  , 70.0  , 168.0  , 143.0  , 71.0  , 168.0  , 140.0  , 71.0  , 172.0  , 144.0  , 70.0  , 173.0  , 151.0  , 70.0  , 165.0  , 147.0  , 68.0  , 162.0  , 159.0  , 66.0  , 160.0  , 181.0  , 61.0  , 158.0  , 179.0  , 64.0  , 157.0  , 169.0  , 64.0  , 152.0  , 162.0  , 63.0  , 151.0  , 159.0  , 63.0  , 153.0  , 155.0  , 60.0  , 148.0  , 149.0  , 60.0  , 145.0  , 144.0  , 60.0  , 144.0  , 143.0  , 60.0  , 141.0  , 139.0  , 59.0  , 144.0  , 136.0  , 59.0  , 140.0  , 133.0  , 60.0  , 138.0  , 128.0  , 66.0  , 138.0  , 127.0  , 68.0  , 140.0  , 129.0  , 67.0  , 139.0  , 129.0  , 67.0  , 139.0  , 132.0  , 65.0  , 140.0  , 137.0  , 65.0  , 140.0  , 138.0  , 110.0  , 140.0  , 140.0  , 113.0  , 144.0  , 139.0  , 118.0  , 143.0  , 135.0  , 129.0  , 140.0  , 134.0  , 143.0  , 143.0  , 132.0  , 137.0  , 145.0  , 130.0  , 158.0  , 145.0  , 129.0  , 160.0  , 145.0  , 127.0  , 150.0  , 143.0  , 124.0  , 148.0  , 146.0  , 123.0  , 149.0  , 150.0  , 122.0  , 141.0  , 151.0  , 123.0  , 166.0  , 154.0  , 128.0  , 176.0  , 154.0  , 134.0  , 177.0  , 159.0  , 133.0  , 172.0  , 163.0  , 131.0  , 175.0  , 162.0  , 131.0  , 178.0  , 171.0  , 139.0  , 189.0  , 170.0  , 152.0  , 199.0  , 171.0  , 177.0  , 189.0  , 175.0  , 172.0  , 195.0  , 170.0  , 169.0  , 195.0  , 174.0  , 165.0  , 194.0  , 170.0  , 164.0  , 194.0  , 174.0  , 165.0  , 199.0  , 181.0  , 177.0  , 199.0  , 180.0  , 171.0  , 212.0  , 185.0  , 226.0  , 259.0  , 183.0  , 214.0  , 260.0  , 181.0  , 229.0  , 251.0  , 186.0  , 245.0  , 252.0  , 183.0  , 240.0  , 246.0  , 178.0  , 232.0  , 257.0  , 176.0  , 309.0  , 285.0  , 185.0  , 314.0  , 292.0  , 201.0  , 334.0  , 317.0  , 231.0  , 324.0  , 329.0  , 250.0  , 298.0  , 335.0  , 242.0  , 348.0  , 357.0  , 298.0  , 333.0  , 330.0  , 311.0  , 395.0  , 308.0  , 337.0  , 426.0  , 363.0  , 325.0  , 412.0  , 358.0  , 310.0  , 408.0  , 377.0  , 324.0  , 392.0  , 382.0  , 320.0  , 396.0  , 402.0  , 335.0  , 446.0  , 387.0  , 327.0  , 445.0  , 391.0  , 317.0  , 421.0  , 395.0  , 376.0  , 409.0  , 422.0  , 418.0  , 415.0  , 447.0  , 398.0  , 413.0  , 419.0  , 385.0  , 415.0  , 412.0  , 371.0  , 401.0  , 421.0  , 344.0  , 390.0  , 473.0  , 367.0  , 401.0  , 453.0  , 363.0  , 376.0  , 470.0  , 385.0  , 409.0  , 477.0  , 376.0  , 386.0  , 439.0  , 356.0  , 432.0  , 413.0  , 392.0  , 443.0  , 407.0  , 388.0  , 408.0  , 396.0  , 381.0  , 387.0 );
                        kernels[13] = compute_kernel(x,   179.0  , 173.0  , 276.0  , 211.0  , 176.0  , 257.0  , 204.0  , 170.0  , 250.0  , 225.0  , 172.0  , 241.0  , 220.0  , 172.0  , 234.0  , 204.0  , 174.0  , 229.0  , 188.0  , 172.0  , 218.0  , 182.0  , 174.0  , 213.0  , 196.0  , 180.0  , 210.0  , 200.0  , 180.0  , 205.0  , 203.0  , 188.0  , 202.0  , 206.0  , 192.0  , 198.0  , 202.0  , 188.0  , 192.0  , 218.0  , 189.0  , 188.0  , 231.0  , 188.0  , 187.0  , 216.0  , 187.0  , 185.0  , 238.0  , 193.0  , 186.0  , 231.0  , 186.0  , 181.0  , 236.0  , 189.0  , 188.0  , 247.0  , 190.0  , 202.0  , 235.0  , 186.0  , 201.0  , 233.0  , 188.0  , 206.0  , 233.0  , 187.0  , 202.0  , 234.0  , 188.0  , 209.0  , 229.0  , 183.0  , 208.0  , 276.0  , 186.0  , 218.0  , 281.0  , 191.0  , 213.0  , 278.0  , 191.0  , 215.0  , 260.0  , 192.0  , 212.0  , 262.0  , 195.0  , 231.0  , 260.0  , 197.0  , 229.0  , 296.0  , 199.0  , 227.0  , 399.0  , 199.0  , 217.0  , 437.0  , 208.0  , 226.0  , 432.0  , 221.0  , 239.0  , 417.0  , 219.0  , 259.0  , 423.0  , 220.0  , 269.0  , 416.0  , 237.0  , 266.0  , 511.0  , 252.0  , 313.0  , 487.0  , 297.0  , 305.0  , 471.0  , 304.0  , 316.0  , 479.0  , 304.0  , 324.0  , 499.0  , 309.0  , 318.0  , 493.0  , 306.0  , 317.0  , 538.0  , 313.0  , 320.0  , 545.0  , 331.0  , 323.0  , 545.0  , 396.0  , 333.0  , 550.0  , 389.0  , 347.0  , 507.0  , 371.0  , 353.0  , 520.0  , 362.0  , 360.0  , 513.0  , 361.0  , 368.0  , 528.0  , 358.0  , 348.0  , 544.0  , 392.0  , 363.0  , 521.0  , 381.0  , 358.0  , 532.0  , 379.0  , 374.0  , 536.0  , 356.0  , 365.0  , 555.0  , 383.0  , 389.0  , 530.0  , 390.0  , 380.0  , 582.0  , 399.0  , 392.0  , 578.0  , 384.0  , 395.0  , 602.0  , 396.0  , 407.0  , 614.0  , 416.0  , 400.0  , 610.0  , 413.0  , 403.0  , 563.0  , 398.0  , 376.0  , 573.0  , 372.0  , 358.0  , 558.0  , 391.0  , 339.0  , 517.0  , 404.0  , 344.0  , 483.0  , 415.0  , 373.0  , 458.0  , 381.0  , 365.0  , 463.0  , 379.0  , 357.0  , 438.0  , 380.0  , 338.0  , 426.0  , 385.0  , 369.0  , 437.0  , 362.0  , 371.0  , 429.0  , 342.0  , 364.0  , 390.0  , 340.0  , 347.0  , 361.0  , 319.0  , 338.0  , 384.0  , 350.0  , 348.0  , 392.0  , 401.0  , 364.0  , 428.0  , 387.0  , 374.0  , 413.0  , 371.0  , 363.0  , 407.0  , 367.0  , 364.0  , 394.0  , 382.0  , 383.0  , 369.0  , 386.0  , 383.0  , 394.0  , 366.0  , 417.0  , 385.0  , 349.0  , 422.0  , 374.0  , 321.0  , 406.0  , 366.0  , 338.0  , 393.0  , 368.0  , 319.0  , 382.0  , 368.0  , 318.0  , 359.0  , 339.0  , 347.0  , 357.0 );
                        kernels[14] = compute_kernel(x,   89.0  , 134.0  , 139.0  , 84.0  , 131.0  , 137.0  , 87.0  , 133.0  , 136.0  , 86.0  , 136.0  , 137.0  , 85.0  , 132.0  , 142.0  , 86.0  , 134.0  , 136.0  , 84.0  , 130.0  , 136.0  , 84.0  , 131.0  , 132.0  , 80.0  , 131.0  , 128.0  , 80.0  , 132.0  , 127.0  , 83.0  , 131.0  , 127.0  , 79.0  , 134.0  , 128.0  , 79.0  , 134.0  , 129.0  , 79.0  , 130.0  , 128.0  , 86.0  , 130.0  , 129.0  , 107.0  , 130.0  , 132.0  , 103.0  , 133.0  , 129.0  , 112.0  , 133.0  , 126.0  , 125.0  , 133.0  , 124.0  , 131.0  , 131.0  , 126.0  , 122.0  , 134.0  , 131.0  , 118.0  , 132.0  , 128.0  , 122.0  , 130.0  , 122.0  , 121.0  , 133.0  , 123.0  , 138.0  , 131.0  , 118.0  , 145.0  , 135.0  , 118.0  , 155.0  , 130.0  , 119.0  , 157.0  , 132.0  , 145.0  , 148.0  , 133.0  , 194.0  , 139.0  , 137.0  , 252.0  , 134.0  , 137.0  , 264.0  , 138.0  , 136.0  , 267.0  , 136.0  , 138.0  , 246.0  , 138.0  , 137.0  , 224.0  , 160.0  , 138.0  , 221.0  , 154.0  , 141.0  , 209.0  , 161.0  , 148.0  , 205.0  , 164.0  , 147.0  , 192.0  , 154.0  , 148.0  , 170.0  , 162.0  , 155.0  , 176.0  , 166.0  , 152.0  , 169.0  , 156.0  , 157.0  , 164.0  , 170.0  , 151.0  , 156.0  , 165.0  , 151.0  , 157.0  , 157.0  , 158.0  , 163.0  , 177.0  , 162.0  , 170.0  , 173.0  , 163.0  , 166.0  , 166.0  , 161.0  , 168.0  , 163.0  , 159.0  , 164.0  , 169.0  , 159.0  , 162.0  , 170.0  , 157.0  , 170.0  , 178.0  , 161.0  , 174.0  , 173.0  , 157.0  , 182.0  , 165.0  , 158.0  , 198.0  , 173.0  , 165.0  , 218.0  , 165.0  , 163.0  , 224.0  , 154.0  , 169.0  , 242.0  , 147.0  , 165.0  , 247.0  , 161.0  , 163.0  , 254.0  , 165.0  , 161.0  , 260.0  , 181.0  , 171.0  , 242.0  , 171.0  , 179.0  , 235.0  , 201.0  , 173.0  , 259.0  , 203.0  , 171.0  , 272.0  , 200.0  , 184.0  , 284.0  , 219.0  , 189.0  , 323.0  , 215.0  , 189.0  , 327.0  , 229.0  , 194.0  , 334.0  , 253.0  , 213.0  , 345.0  , 313.0  , 219.0  , 332.0  , 289.0  , 266.0  , 312.0  , 294.0  , 272.0  , 318.0  , 326.0  , 277.0  , 306.0  , 313.0  , 257.0  , 313.0  , 343.0  , 250.0  , 319.0  , 342.0  , 239.0  , 337.0  , 349.0  , 230.0  , 326.0  , 362.0  , 283.0  , 309.0  , 355.0  , 280.0  , 285.0  , 323.0  , 271.0  , 269.0  , 326.0  , 276.0  , 257.0  , 332.0  , 261.0  , 242.0  , 393.0  , 310.0  , 238.0  , 377.0  , 312.0  , 241.0  , 359.0  , 326.0  , 245.0  , 346.0  , 313.0  , 235.0  , 343.0  , 304.0  , 284.0  , 357.0  , 300.0  , 285.0  , 378.0  , 318.0  , 295.0  , 368.0  , 323.0  , 303.0 );
                        kernels[15] = compute_kernel(x,   100.0  , 151.0  , 141.0  , 122.0  , 146.0  , 142.0  , 118.0  , 152.0  , 143.0  , 138.0  , 151.0  , 143.0  , 144.0  , 152.0  , 146.0  , 143.0  , 154.0  , 143.0  , 137.0  , 151.0  , 141.0  , 128.0  , 150.0  , 120.0  , 122.0  , 152.0  , 136.0  , 117.0  , 150.0  , 136.0  , 110.0  , 152.0  , 134.0  , 109.0  , 151.0  , 143.0  , 106.0  , 156.0  , 130.0  , 129.0  , 156.0  , 134.0  , 145.0  , 157.0  , 136.0  , 152.0  , 155.0  , 139.0  , 166.0  , 153.0  , 137.0  , 178.0  , 155.0  , 144.0  , 164.0  , 155.0  , 143.0  , 169.0  , 158.0  , 142.0  , 163.0  , 157.0  , 147.0  , 161.0  , 157.0  , 141.0  , 160.0  , 158.0  , 147.0  , 160.0  , 160.0  , 155.0  , 166.0  , 161.0  , 155.0  , 165.0  , 167.0  , 159.0  , 164.0  , 166.0  , 160.0  , 164.0  , 165.0  , 164.0  , 169.0  , 161.0  , 167.0  , 171.0  , 163.0  , 169.0  , 159.0  , 166.0  , 168.0  , 184.0  , 162.0  , 187.0  , 203.0  , 164.0  , 181.0  , 204.0  , 160.0  , 186.0  , 190.0  , 160.0  , 184.0  , 220.0  , 155.0  , 186.0  , 231.0  , 156.0  , 174.0  , 264.0  , 161.0  , 172.0  , 246.0  , 155.0  , 171.0  , 233.0  , 180.0  , 171.0  , 268.0  , 203.0  , 167.0  , 265.0  , 199.0  , 166.0  , 276.0  , 200.0  , 173.0  , 270.0  , 204.0  , 178.0  , 286.0  , 220.0  , 179.0  , 275.0  , 239.0  , 196.0  , 295.0  , 240.0  , 200.0  , 305.0  , 249.0  , 218.0  , 351.0  , 262.0  , 232.0  , 438.0  , 274.0  , 310.0  , 558.0  , 278.0  , 347.0  , 535.0  , 287.0  , 320.0  , 575.0  , 306.0  , 333.0  , 650.0  , 313.0  , 331.0  , 685.0  , 318.0  , 330.0  , 707.0  , 319.0  , 309.0  , 654.0  , 343.0  , 303.0  , 629.0  , 368.0  , 308.0  , 599.0  , 380.0  , 344.0  , 646.0  , 364.0  , 370.0  , 632.0  , 343.0  , 362.0  , 617.0  , 313.0  , 370.0  , 631.0  , 310.0  , 374.0  , 669.0  , 421.0  , 396.0  , 659.0  , 385.0  , 381.0  , 689.0  , 378.0  , 398.0  , 684.0  , 362.0  , 401.0  , 671.0  , 362.0  , 435.0  , 634.0  , 331.0  , 419.0  , 618.0  , 345.0  , 434.0  , 604.0  , 338.0  , 387.0  , 625.0  , 382.0  , 417.0  , 607.0  , 385.0  , 394.0  , 650.0  , 409.0  , 365.0  , 621.0  , 414.0  , 367.0  , 603.0  , 390.0  , 377.0  , 560.0  , 382.0  , 353.0  , 526.0  , 385.0  , 370.0  , 488.0  , 392.0  , 389.0  , 477.0  , 383.0  , 369.0  , 461.0  , 409.0  , 370.0  , 437.0  , 381.0  , 380.0  , 447.0  , 370.0  , 367.0  , 419.0  , 355.0  , 363.0  , 409.0  , 364.0  , 347.0  , 442.0  , 404.0  , 361.0  , 450.0  , 382.0  , 351.0  , 437.0  , 376.0  , 374.0  , 445.0  , 368.0  , 391.0  , 432.0  , 434.0  , 395.0 );
                        kernels[16] = compute_kernel(x,   215.0  , 268.0  , 507.0  , 209.0  , 264.0  , 515.0  , 203.0  , 251.0  , 514.0  , 202.0  , 239.0  , 518.0  , 202.0  , 228.0  , 522.0  , 216.0  , 221.0  , 531.0  , 210.0  , 221.0  , 542.0  , 204.0  , 203.0  , 515.0  , 194.0  , 202.0  , 512.0  , 188.0  , 191.0  , 510.0  , 194.0  , 209.0  , 500.0  , 188.0  , 202.0  , 581.0  , 192.0  , 204.0  , 530.0  , 189.0  , 205.0  , 524.0  , 187.0  , 232.0  , 501.0  , 191.0  , 243.0  , 469.0  , 188.0  , 233.0  , 470.0  , 193.0  , 236.0  , 459.0  , 190.0  , 236.0  , 478.0  , 185.0  , 232.0  , 471.0  , 190.0  , 240.0  , 446.0  , 187.0  , 235.0  , 445.0  , 196.0  , 242.0  , 417.0  , 197.0  , 252.0  , 407.0  , 201.0  , 249.0  , 419.0  , 205.0  , 263.0  , 474.0  , 206.0  , 252.0  , 452.0  , 215.0  , 243.0  , 425.0  , 223.0  , 241.0  , 422.0  , 228.0  , 248.0  , 403.0  , 239.0  , 267.0  , 373.0  , 239.0  , 256.0  , 401.0  , 254.0  , 286.0  , 385.0  , 264.0  , 282.0  , 362.0  , 272.0  , 277.0  , 359.0  , 286.0  , 302.0  , 344.0  , 294.0  , 291.0  , 325.0  , 317.0  , 295.0  , 321.0  , 333.0  , 288.0  , 449.0  , 352.0  , 283.0  , 465.0  , 423.0  , 303.0  , 459.0  , 447.0  , 287.0  , 418.0  , 458.0  , 273.0  , 423.0  , 458.0  , 265.0  , 430.0  , 481.0  , 265.0  , 444.0  , 507.0  , 254.0  , 460.0  , 520.0  , 237.0  , 432.0  , 548.0  , 300.0  , 426.0  , 561.0  , 296.0  , 402.0  , 563.0  , 281.0  , 407.0  , 572.0  , 316.0  , 390.0  , 559.0  , 347.0  , 431.0  , 557.0  , 392.0  , 417.0  , 556.0  , 477.0  , 413.0  , 564.0  , 498.0  , 388.0  , 550.0  , 515.0  , 450.0  , 554.0  , 549.0  , 436.0  , 559.0  , 600.0  , 436.0  , 573.0  , 677.0  , 405.0  , 580.0  , 616.0  , 403.0  , 601.0  , 573.0  , 424.0  , 620.0  , 543.0  , 411.0  , 636.0  , 553.0  , 483.0  , 650.0  , 524.0  , 488.0  , 661.0  , 480.0  , 516.0  , 674.0  , 445.0  , 577.0  , 684.0  , 427.0  , 527.0  , 683.0  , 445.0  , 585.0  , 688.0  , 439.0  , 563.0  , 698.0  , 460.0  , 603.0  , 709.0  , 472.0  , 606.0  , 725.0  , 523.0  , 592.0  , 743.0  , 536.0  , 597.0  , 755.0  , 601.0  , 693.0  , 766.0  , 603.0  , 691.0  , 781.0  , 646.0  , 730.0  , 786.0  , 695.0  , 769.0  , 791.0  , 692.0  , 687.0  , 790.0  , 741.0  , 633.0  , 766.0  , 707.0  , 645.0  , 767.0  , 713.0  , 577.0  , 761.0  , 777.0  , 529.0  , 743.0  , 792.0  , 501.0  , 704.0  , 772.0  , 620.0  , 695.0  , 814.0  , 605.0  , 687.0  , 784.0  , 587.0  , 659.0  , 748.0  , 832.0  , 636.0  , 775.0  , 812.0  , 615.0  , 709.0  , 782.0  , 588.0  , 652.0  , 861.0 );
                        kernels[17] = compute_kernel(x,   125.0  , 275.0  , 129.0  , 132.0  , 285.0  , 127.0  , 129.0  , 278.0  , 121.0  , 135.0  , 280.0  , 122.0  , 134.0  , 280.0  , 116.0  , 133.0  , 272.0  , 124.0  , 139.0  , 285.0  , 117.0  , 131.0  , 284.0  , 120.0  , 138.0  , 298.0  , 121.0  , 139.0  , 295.0  , 119.0  , 137.0  , 302.0  , 128.0  , 150.0  , 304.0  , 127.0  , 144.0  , 289.0  , 135.0  , 139.0  , 311.0  , 134.0  , 132.0  , 319.0  , 135.0  , 126.0  , 327.0  , 132.0  , 124.0  , 328.0  , 131.0  , 115.0  , 318.0  , 137.0  , 111.0  , 306.0  , 136.0  , 108.0  , 320.0  , 137.0  , 101.0  , 331.0  , 143.0  , 95.0  , 326.0  , 139.0  , 88.0  , 340.0  , 135.0  , 84.0  , 347.0  , 144.0  , 79.0  , 340.0  , 169.0  , 77.0  , 327.0  , 178.0  , 73.0  , 339.0  , 178.0  , 71.0  , 318.0  , 177.0  , 66.0  , 314.0  , 174.0  , 67.0  , 292.0  , 181.0  , 68.0  , 284.0  , 191.0  , 65.0  , 267.0  , 190.0  , 73.0  , 253.0  , 196.0  , 73.0  , 254.0  , 202.0  , 74.0  , 237.0  , 198.0  , 84.0  , 229.0  , 192.0  , 87.0  , 222.0  , 186.0  , 99.0  , 213.0  , 199.0  , 109.0  , 201.0  , 211.0  , 123.0  , 191.0  , 214.0  , 135.0  , 189.0  , 257.0  , 140.0  , 186.0  , 256.0  , 165.0  , 218.0  , 245.0  , 173.0  , 216.0  , 245.0  , 180.0  , 213.0  , 232.0  , 183.0  , 208.0  , 235.0  , 176.0  , 212.0  , 234.0  , 175.0  , 222.0  , 218.0  , 170.0  , 231.0  , 204.0  , 165.0  , 270.0  , 200.0  , 161.0  , 293.0  , 202.0  , 151.0  , 307.0  , 191.0  , 160.0  , 329.0  , 193.0  , 169.0  , 361.0  , 201.0  , 188.0  , 395.0  , 205.0  , 209.0  , 418.0  , 220.0  , 218.0  , 397.0  , 231.0  , 230.0  , 389.0  , 264.0  , 251.0  , 432.0  , 255.0  , 275.0  , 391.0  , 234.0  , 320.0  , 374.0  , 222.0  , 364.0  , 383.0  , 213.0  , 402.0  , 351.0  , 202.0  , 426.0  , 318.0  , 217.0  , 447.0  , 314.0  , 207.0  , 453.0  , 293.0  , 220.0  , 460.0  , 293.0  , 225.0  , 460.0  , 323.0  , 222.0  , 470.0  , 303.0  , 212.0  , 478.0  , 291.0  , 202.0  , 476.0  , 285.0  , 215.0  , 478.0  , 292.0  , 230.0  , 493.0  , 285.0  , 241.0  , 508.0  , 294.0  , 236.0  , 530.0  , 323.0  , 258.0  , 551.0  , 303.0  , 273.0  , 573.0  , 327.0  , 303.0  , 614.0  , 380.0  , 314.0  , 613.0  , 454.0  , 344.0  , 624.0  , 497.0  , 367.0  , 643.0  , 460.0  , 420.0  , 669.0  , 434.0  , 438.0  , 670.0  , 504.0  , 417.0  , 658.0  , 499.0  , 423.0  , 665.0  , 613.0  , 497.0  , 675.0  , 734.0  , 508.0  , 674.0  , 713.0  , 543.0  , 664.0  , 625.0  , 525.0  , 659.0  , 607.0  , 505.0  , 654.0  , 565.0  , 488.0 );
                        kernels[18] = compute_kernel(x,   72.0  , 289.0  , 182.0  , 72.0  , 295.0  , 192.0  , 67.0  , 283.0  , 188.0  , 68.0  , 263.0  , 186.0  , 70.0  , 249.0  , 201.0  , 68.0  , 233.0  , 228.0  , 68.0  , 230.0  , 232.0  , 64.0  , 221.0  , 248.0  , 63.0  , 222.0  , 237.0  , 63.0  , 225.0  , 228.0  , 62.0  , 229.0  , 258.0  , 68.0  , 223.0  , 265.0  , 68.0  , 217.0  , 253.0  , 68.0  , 215.0  , 263.0  , 63.0  , 222.0  , 273.0  , 64.0  , 219.0  , 287.0  , 60.0  , 230.0  , 279.0  , 62.0  , 224.0  , 287.0  , 59.0  , 234.0  , 285.0  , 62.0  , 233.0  , 265.0  , 70.0  , 225.0  , 273.0  , 73.0  , 242.0  , 264.0  , 89.0  , 238.0  , 271.0  , 101.0  , 249.0  , 266.0  , 110.0  , 248.0  , 263.0  , 132.0  , 250.0  , 242.0  , 140.0  , 271.0  , 230.0  , 149.0  , 258.0  , 215.0  , 156.0  , 274.0  , 244.0  , 166.0  , 287.0  , 255.0  , 184.0  , 280.0  , 260.0  , 195.0  , 276.0  , 263.0  , 217.0  , 266.0  , 267.0  , 233.0  , 270.0  , 250.0  , 252.0  , 272.0  , 244.0  , 280.0  , 296.0  , 247.0  , 299.0  , 312.0  , 238.0  , 320.0  , 333.0  , 223.0  , 339.0  , 329.0  , 213.0  , 358.0  , 329.0  , 208.0  , 384.0  , 307.0  , 242.0  , 395.0  , 340.0  , 254.0  , 411.0  , 330.0  , 286.0  , 404.0  , 325.0  , 262.0  , 399.0  , 310.0  , 267.0  , 410.0  , 290.0  , 268.0  , 412.0  , 284.0  , 255.0  , 426.0  , 281.0  , 272.0  , 442.0  , 263.0  , 300.0  , 459.0  , 253.0  , 302.0  , 479.0  , 256.0  , 327.0  , 498.0  , 249.0  , 307.0  , 514.0  , 251.0  , 309.0  , 528.0  , 235.0  , 310.0  , 535.0  , 255.0  , 318.0  , 558.0  , 290.0  , 316.0  , 564.0  , 293.0  , 294.0  , 578.0  , 292.0  , 286.0  , 589.0  , 315.0  , 270.0  , 608.0  , 319.0  , 269.0  , 629.0  , 354.0  , 300.0  , 646.0  , 351.0  , 349.0  , 656.0  , 372.0  , 313.0  , 662.0  , 397.0  , 281.0  , 664.0  , 395.0  , 297.0  , 641.0  , 396.0  , 332.0  , 613.0  , 464.0  , 334.0  , 579.0  , 478.0  , 334.0  , 554.0  , 514.0  , 427.0  , 525.0  , 487.0  , 466.0  , 495.0  , 524.0  , 506.0  , 473.0  , 515.0  , 573.0  , 434.0  , 502.0  , 608.0  , 383.0  , 500.0  , 668.0  , 340.0  , 452.0  , 726.0  , 304.0  , 492.0  , 715.0  , 269.0  , 549.0  , 746.0  , 233.0  , 508.0  , 730.0  , 206.0  , 471.0  , 766.0  , 183.0  , 491.0  , 753.0  , 167.0  , 475.0  , 744.0  , 156.0  , 428.0  , 718.0  , 147.0  , 408.0  , 735.0  , 140.0  , 562.0  , 716.0  , 139.0  , 590.0  , 759.0  , 147.0  , 561.0  , 817.0  , 162.0  , 541.0  , 805.0  , 170.0  , 507.0  , 772.0  , 186.0  , 457.0  , 770.0  , 201.0  , 470.0  , 802.0 );
                        kernels[19] = compute_kernel(x,   61.0  , 413.0  , 601.0  , 64.0  , 408.0  , 636.0  , 62.0  , 399.0  , 622.0  , 59.0  , 389.0  , 588.0  , 63.0  , 385.0  , 655.0  , 59.0  , 375.0  , 687.0  , 61.0  , 343.0  , 672.0  , 59.0  , 362.0  , 726.0  , 61.0  , 353.0  , 761.0  , 59.0  , 359.0  , 723.0  , 57.0  , 332.0  , 718.0  , 60.0  , 338.0  , 711.0  , 59.0  , 334.0  , 731.0  , 59.0  , 331.0  , 691.0  , 58.0  , 332.0  , 675.0  , 60.0  , 322.0  , 687.0  , 65.0  , 306.0  , 675.0  , 64.0  , 313.0  , 703.0  , 72.0  , 308.0  , 659.0  , 75.0  , 313.0  , 639.0  , 85.0  , 295.0  , 648.0  , 96.0  , 293.0  , 599.0  , 101.0  , 277.0  , 581.0  , 118.0  , 255.0  , 545.0  , 125.0  , 244.0  , 536.0  , 134.0  , 232.0  , 544.0  , 152.0  , 219.0  , 492.0  , 164.0  , 220.0  , 456.0  , 178.0  , 221.0  , 432.0  , 196.0  , 229.0  , 441.0  , 219.0  , 223.0  , 424.0  , 242.0  , 221.0  , 398.0  , 256.0  , 250.0  , 367.0  , 280.0  , 253.0  , 340.0  , 291.0  , 273.0  , 387.0  , 312.0  , 283.0  , 414.0  , 336.0  , 291.0  , 420.0  , 351.0  , 309.0  , 387.0  , 365.0  , 292.0  , 369.0  , 362.0  , 315.0  , 362.0  , 364.0  , 312.0  , 377.0  , 357.0  , 312.0  , 385.0  , 343.0  , 325.0  , 432.0  , 323.0  , 335.0  , 448.0  , 287.0  , 336.0  , 525.0  , 257.0  , 352.0  , 575.0  , 233.0  , 331.0  , 647.0  , 226.0  , 322.0  , 639.0  , 211.0  , 320.0  , 607.0  , 202.0  , 353.0  , 600.0  , 197.0  , 354.0  , 620.0  , 183.0  , 356.0  , 602.0  , 176.0  , 386.0  , 570.0  , 159.0  , 370.0  , 673.0  , 151.0  , 388.0  , 717.0  , 142.0  , 397.0  , 717.0  , 135.0  , 386.0  , 657.0  , 135.0  , 408.0  , 639.0  , 128.0  , 421.0  , 684.0  , 129.0  , 471.0  , 689.0  , 117.0  , 501.0  , 667.0  , 108.0  , 567.0  , 656.0  , 101.0  , 610.0  , 615.0  , 100.0  , 671.0  , 672.0  , 91.0  , 702.0  , 648.0  , 89.0  , 676.0  , 715.0  , 91.0  , 734.0  , 744.0  , 87.0  , 837.0  , 800.0  , 82.0  , 900.0  , 858.0  , 83.0  , 924.0  , 838.0  , 80.0  , 919.0  , 765.0  , 82.0  , 938.0  , 812.0  , 79.0  , 947.0  , 903.0  , 74.0  , 913.0  , 901.0  , 75.0  , 850.0  , 830.0  , 82.0  , 828.0  , 815.0  , 79.0  , 852.0  , 780.0  , 81.0  , 882.0  , 759.0  , 75.0  , 854.0  , 719.0  , 73.0  , 850.0  , 742.0  , 80.0  , 838.0  , 701.0  , 97.0  , 781.0  , 695.0  , 131.0  , 737.0  , 680.0  , 150.0  , 758.0  , 709.0  , 154.0  , 707.0  , 624.0  , 174.0  , 733.0  , 641.0  , 188.0  , 702.0  , 747.0  , 216.0  , 698.0  , 733.0  , 202.0  , 620.0  , 768.0  , 200.0  , 565.0  , 777.0 );
                        kernels[20] = compute_kernel(x,   74.0  , 228.0  , 432.0  , 68.0  , 252.0  , 431.0  , 67.0  , 236.0  , 455.0  , 64.0  , 228.0  , 482.0  , 67.0  , 214.0  , 461.0  , 62.0  , 210.0  , 441.0  , 65.0  , 230.0  , 436.0  , 60.0  , 246.0  , 436.0  , 59.0  , 227.0  , 450.0  , 60.0  , 241.0  , 426.0  , 58.0  , 242.0  , 453.0  , 59.0  , 252.0  , 447.0  , 56.0  , 285.0  , 471.0  , 54.0  , 272.0  , 492.0  , 54.0  , 263.0  , 543.0  , 52.0  , 275.0  , 520.0  , 53.0  , 264.0  , 532.0  , 54.0  , 271.0  , 555.0  , 53.0  , 273.0  , 572.0  , 53.0  , 294.0  , 614.0  , 56.0  , 299.0  , 642.0  , 54.0  , 290.0  , 627.0  , 50.0  , 287.0  , 623.0  , 54.0  , 290.0  , 631.0  , 57.0  , 281.0  , 622.0  , 56.0  , 278.0  , 595.0  , 58.0  , 328.0  , 563.0  , 55.0  , 317.0  , 547.0  , 56.0  , 305.0  , 533.0  , 56.0  , 315.0  , 505.0  , 54.0  , 298.0  , 522.0  , 54.0  , 281.0  , 477.0  , 53.0  , 267.0  , 440.0  , 51.0  , 289.0  , 404.0  , 52.0  , 271.0  , 380.0  , 51.0  , 269.0  , 356.0  , 50.0  , 294.0  , 344.0  , 50.0  , 279.0  , 325.0  , 50.0  , 280.0  , 304.0  , 51.0  , 284.0  , 296.0  , 51.0  , 266.0  , 328.0  , 50.0  , 260.0  , 303.0  , 49.0  , 251.0  , 302.0  , 49.0  , 258.0  , 355.0  , 51.0  , 300.0  , 370.0  , 50.0  , 299.0  , 416.0  , 50.0  , 321.0  , 401.0  , 54.0  , 330.0  , 429.0  , 52.0  , 306.0  , 449.0  , 51.0  , 302.0  , 480.0  , 49.0  , 299.0  , 540.0  , 51.0  , 306.0  , 509.0  , 51.0  , 306.0  , 566.0  , 49.0  , 305.0  , 573.0  , 51.0  , 330.0  , 574.0  , 48.0  , 337.0  , 646.0  , 50.0  , 323.0  , 648.0  , 51.0  , 321.0  , 609.0  , 55.0  , 310.0  , 664.0  , 60.0  , 304.0  , 647.0  , 62.0  , 328.0  , 647.0  , 73.0  , 319.0  , 644.0  , 77.0  , 299.0  , 625.0  , 91.0  , 290.0  , 648.0  , 109.0  , 310.0  , 607.0  , 118.0  , 290.0  , 584.0  , 140.0  , 290.0  , 580.0  , 149.0  , 278.0  , 578.0  , 169.0  , 273.0  , 535.0  , 188.0  , 268.0  , 530.0  , 194.0  , 279.0  , 558.0  , 221.0  , 261.0  , 518.0  , 236.0  , 323.0  , 520.0  , 256.0  , 320.0  , 487.0  , 272.0  , 306.0  , 478.0  , 291.0  , 286.0  , 453.0  , 323.0  , 294.0  , 420.0  , 339.0  , 311.0  , 434.0  , 363.0  , 303.0  , 414.0  , 380.0  , 296.0  , 455.0  , 393.0  , 341.0  , 411.0  , 389.0  , 319.0  , 393.0  , 384.0  , 303.0  , 367.0  , 365.0  , 314.0  , 375.0  , 340.0  , 303.0  , 403.0  , 308.0  , 296.0  , 382.0  , 279.0  , 334.0  , 402.0  , 249.0  , 304.0  , 425.0  , 221.0  , 290.0  , 427.0  , 193.0  , 269.0  , 388.0 );
                        kernels[21] = compute_kernel(x,   55.0  , 199.0  , 313.0  , 56.0  , 200.0  , 306.0  , 58.0  , 199.0  , 291.0  , 61.0  , 197.0  , 278.0  , 52.0  , 191.0  , 271.0  , 59.0  , 199.0  , 255.0  , 58.0  , 197.0  , 245.0  , 56.0  , 202.0  , 226.0  , 59.0  , 212.0  , 214.0  , 58.0  , 214.0  , 209.0  , 55.0  , 224.0  , 205.0  , 57.0  , 228.0  , 199.0  , 56.0  , 247.0  , 202.0  , 56.0  , 261.0  , 200.0  , 55.0  , 276.0  , 207.0  , 55.0  , 289.0  , 209.0  , 57.0  , 288.0  , 239.0  , 55.0  , 296.0  , 239.0  , 58.0  , 305.0  , 241.0  , 55.0  , 309.0  , 279.0  , 61.0  , 338.0  , 259.0  , 64.0  , 345.0  , 248.0  , 69.0  , 354.0  , 263.0  , 76.0  , 382.0  , 252.0  , 81.0  , 389.0  , 266.0  , 92.0  , 425.0  , 282.0  , 96.0  , 467.0  , 282.0  , 94.0  , 488.0  , 298.0  , 105.0  , 490.0  , 287.0  , 108.0  , 508.0  , 277.0  , 114.0  , 536.0  , 268.0  , 117.0  , 556.0  , 282.0  , 126.0  , 580.0  , 285.0  , 132.0  , 619.0  , 286.0  , 137.0  , 612.0  , 333.0  , 152.0  , 616.0  , 389.0  , 159.0  , 638.0  , 354.0  , 172.0  , 659.0  , 355.0  , 188.0  , 633.0  , 342.0  , 195.0  , 621.0  , 340.0  , 206.0  , 621.0  , 340.0  , 213.0  , 626.0  , 325.0  , 220.0  , 610.0  , 302.0  , 238.0  , 587.0  , 320.0  , 289.0  , 593.0  , 370.0  , 276.0  , 590.0  , 357.0  , 314.0  , 598.0  , 416.0  , 311.0  , 604.0  , 416.0  , 294.0  , 613.0  , 389.0  , 266.0  , 646.0  , 383.0  , 239.0  , 639.0  , 458.0  , 213.0  , 642.0  , 472.0  , 194.0  , 659.0  , 484.0  , 180.0  , 708.0  , 490.0  , 166.0  , 783.0  , 481.0  , 152.0  , 762.0  , 441.0  , 153.0  , 743.0  , 413.0  , 151.0  , 766.0  , 449.0  , 152.0  , 763.0  , 493.0  , 163.0  , 813.0  , 486.0  , 163.0  , 775.0  , 536.0  , 169.0  , 744.0  , 507.0  , 167.0  , 733.0  , 459.0  , 170.0  , 723.0  , 496.0  , 165.0  , 687.0  , 474.0  , 166.0  , 626.0  , 429.0  , 168.0  , 638.0  , 456.0  , 150.0  , 560.0  , 440.0  , 147.0  , 514.0  , 450.0  , 138.0  , 460.0  , 446.0  , 132.0  , 463.0  , 598.0  , 152.0  , 425.0  , 581.0  , 144.0  , 622.0  , 557.0  , 131.0  , 652.0  , 634.0  , 135.0  , 581.0  , 760.0  , 138.0  , 541.0  , 755.0  , 139.0  , 527.0  , 813.0  , 146.0  , 514.0  , 924.0  , 168.0  , 507.0  , 971.0  , 188.0  , 471.0  , 969.0  , 201.0  , 510.0  , 931.0  , 191.0  , 520.0  , 970.0  , 218.0  , 521.0  , 904.0  , 219.0  , 505.0  , 839.0  , 222.0  , 498.0  , 952.0  , 210.0  , 557.0  , 963.0  , 233.0  , 669.0  , 969.0  , 246.0  , 688.0  , 906.0  , 243.0  , 681.0  , 968.0  , 243.0  , 626.0  , 971.0 );
                        kernels[22] = compute_kernel(x,   971.0  , 311.0  , 208.0  , 969.0  , 298.0  , 203.0  , 969.0  , 286.0  , 206.0  , 970.0  , 277.0  , 226.0  , 970.0  , 267.0  , 223.0  , 969.0  , 265.0  , 222.0  , 970.0  , 254.0  , 206.0  , 969.0  , 253.0  , 195.0  , 966.0  , 238.0  , 194.0  , 967.0  , 224.0  , 200.0  , 960.0  , 216.0  , 219.0  , 961.0  , 206.0  , 217.0  , 961.0  , 198.0  , 229.0  , 955.0  , 190.0  , 224.0  , 955.0  , 186.0  , 212.0  , 950.0  , 174.0  , 227.0  , 943.0  , 175.0  , 250.0  , 933.0  , 184.0  , 236.0  , 915.0  , 197.0  , 237.0  , 902.0  , 195.0  , 257.0  , 879.0  , 219.0  , 259.0  , 871.0  , 218.0  , 261.0  , 867.0  , 232.0  , 266.0  , 856.0  , 249.0  , 259.0  , 853.0  , 246.0  , 241.0  , 839.0  , 237.0  , 235.0  , 830.0  , 253.0  , 282.0  , 821.0  , 262.0  , 287.0  , 817.0  , 264.0  , 266.0  , 819.0  , 261.0  , 250.0  , 807.0  , 255.0  , 255.0  , 807.0  , 243.0  , 267.0  , 803.0  , 222.0  , 270.0  , 795.0  , 214.0  , 269.0  , 790.0  , 207.0  , 268.0  , 778.0  , 194.0  , 278.0  , 796.0  , 188.0  , 290.0  , 786.0  , 184.0  , 332.0  , 769.0  , 181.0  , 353.0  , 739.0  , 192.0  , 359.0  , 724.0  , 189.0  , 388.0  , 718.0  , 192.0  , 380.0  , 704.0  , 186.0  , 376.0  , 682.0  , 177.0  , 389.0  , 659.0  , 174.0  , 402.0  , 624.0  , 168.0  , 396.0  , 603.0  , 168.0  , 419.0  , 577.0  , 189.0  , 442.0  , 544.0  , 182.0  , 461.0  , 518.0  , 188.0  , 425.0  , 483.0  , 184.0  , 404.0  , 447.0  , 196.0  , 449.0  , 444.0  , 201.0  , 422.0  , 396.0  , 198.0  , 455.0  , 349.0  , 196.0  , 494.0  , 304.0  , 238.0  , 455.0  , 274.0  , 241.0  , 443.0  , 260.0  , 233.0  , 469.0  , 269.0  , 231.0  , 474.0  , 284.0  , 258.0  , 506.0  , 303.0  , 263.0  , 557.0  , 336.0  , 260.0  , 523.0  , 370.0  , 268.0  , 521.0  , 403.0  , 266.0  , 512.0  , 440.0  , 272.0  , 489.0  , 481.0  , 264.0  , 475.0  , 516.0  , 255.0  , 455.0  , 541.0  , 262.0  , 439.0  , 564.0  , 262.0  , 493.0  , 585.0  , 291.0  , 462.0  , 615.0  , 332.0  , 448.0  , 634.0  , 340.0  , 466.0  , 658.0  , 377.0  , 506.0  , 685.0  , 359.0  , 503.0  , 717.0  , 345.0  , 473.0  , 727.0  , 357.0  , 563.0  , 742.0  , 386.0  , 582.0  , 760.0  , 396.0  , 555.0  , 795.0  , 391.0  , 525.0  , 801.0  , 385.0  , 551.0  , 812.0  , 361.0  , 600.0  , 828.0  , 350.0  , 589.0  , 856.0  , 380.0  , 612.0  , 852.0  , 495.0  , 578.0  , 846.0  , 493.0  , 621.0  , 838.0  , 479.0  , 583.0  , 845.0  , 435.0  , 732.0  , 819.0  , 442.0  , 811.0  , 806.0  , 426.0  , 821.0  , 788.0  , 475.0  , 868.0 );
                        kernels[23] = compute_kernel(x,   917.0  , 242.0  , 249.0  , 902.0  , 252.0  , 254.0  , 890.0  , 240.0  , 245.0  , 870.0  , 263.0  , 240.0  , 869.0  , 249.0  , 243.0  , 853.0  , 258.0  , 241.0  , 847.0  , 321.0  , 244.0  , 851.0  , 309.0  , 230.0  , 829.0  , 295.0  , 225.0  , 797.0  , 286.0  , 230.0  , 753.0  , 287.0  , 245.0  , 704.0  , 299.0  , 251.0  , 659.0  , 296.0  , 232.0  , 611.0  , 304.0  , 217.0  , 570.0  , 317.0  , 215.0  , 521.0  , 310.0  , 214.0  , 481.0  , 299.0  , 231.0  , 454.0  , 280.0  , 222.0  , 423.0  , 272.0  , 233.0  , 404.0  , 264.0  , 248.0  , 383.0  , 258.0  , 281.0  , 365.0  , 251.0  , 300.0  , 346.0  , 244.0  , 284.0  , 322.0  , 228.0  , 273.0  , 302.0  , 215.0  , 276.0  , 281.0  , 210.0  , 256.0  , 268.0  , 206.0  , 265.0  , 266.0  , 202.0  , 252.0  , 253.0  , 238.0  , 256.0  , 255.0  , 252.0  , 239.0  , 254.0  , 266.0  , 234.0  , 249.0  , 280.0  , 208.0  , 243.0  , 293.0  , 200.0  , 222.0  , 308.0  , 194.0  , 204.0  , 323.0  , 226.0  , 183.0  , 350.0  , 237.0  , 170.0  , 372.0  , 246.0  , 155.0  , 395.0  , 234.0  , 146.0  , 386.0  , 259.0  , 146.0  , 369.0  , 247.0  , 159.0  , 383.0  , 238.0  , 177.0  , 364.0  , 247.0  , 172.0  , 348.0  , 235.0  , 170.0  , 345.0  , 241.0  , 161.0  , 330.0  , 245.0  , 164.0  , 335.0  , 241.0  , 171.0  , 327.0  , 241.0  , 161.0  , 353.0  , 259.0  , 150.0  , 344.0  , 263.0  , 141.0  , 319.0  , 254.0  , 129.0  , 302.0  , 252.0  , 123.0  , 282.0  , 257.0  , 113.0  , 273.0  , 254.0  , 104.0  , 272.0  , 244.0  , 110.0  , 259.0  , 238.0  , 117.0  , 237.0  , 276.0  , 124.0  , 234.0  , 283.0  , 132.0  , 240.0  , 289.0  , 150.0  , 234.0  , 305.0  , 172.0  , 224.0  , 362.0  , 198.0  , 228.0  , 348.0  , 234.0  , 242.0  , 336.0  , 264.0  , 305.0  , 507.0  , 304.0  , 298.0  , 525.0  , 341.0  , 334.0  , 763.0  , 392.0  , 316.0  , 695.0  , 452.0  , 304.0  , 703.0  , 520.0  , 299.0  , 676.0  , 580.0  , 337.0  , 632.0  , 641.0  , 447.0  , 730.0  , 720.0  , 586.0  , 719.0  , 797.0  , 581.0  , 653.0  , 870.0  , 554.0  , 596.0  , 946.0  , 526.0  , 659.0  , 969.0  , 476.0  , 643.0  , 969.0  , 482.0  , 625.0  , 970.0  , 556.0  , 602.0  , 970.0  , 739.0  , 545.0  , 970.0  , 733.0  , 542.0  , 969.0  , 735.0  , 516.0  , 969.0  , 664.0  , 496.0  , 970.0  , 620.0  , 456.0  , 969.0  , 596.0  , 489.0  , 969.0  , 613.0  , 528.0  , 970.0  , 731.0  , 505.0  , 969.0  , 778.0  , 480.0  , 970.0  , 722.0  , 478.0  , 969.0  , 655.0  , 550.0  , 970.0  , 610.0  , 542.0  , 970.0  , 587.0  , 521.0 );
                        kernels[24] = compute_kernel(x,   501.0  , 293.0  , 421.0  , 517.0  , 277.0  , 421.0  , 520.0  , 270.0  , 439.0  , 520.0  , 249.0  , 450.0  , 531.0  , 241.0  , 449.0  , 530.0  , 230.0  , 508.0  , 547.0  , 230.0  , 481.0  , 549.0  , 243.0  , 473.0  , 557.0  , 266.0  , 466.0  , 563.0  , 284.0  , 477.0  , 563.0  , 302.0  , 507.0  , 575.0  , 332.0  , 487.0  , 578.0  , 361.0  , 493.0  , 590.0  , 408.0  , 493.0  , 596.0  , 438.0  , 491.0  , 600.0  , 473.0  , 488.0  , 611.0  , 500.0  , 473.0  , 619.0  , 487.0  , 471.0  , 623.0  , 506.0  , 452.0  , 639.0  , 487.0  , 409.0  , 652.0  , 485.0  , 412.0  , 678.0  , 466.0  , 381.0  , 689.0  , 446.0  , 350.0  , 710.0  , 436.0  , 345.0  , 728.0  , 414.0  , 356.0  , 740.0  , 393.0  , 357.0  , 767.0  , 376.0  , 355.0  , 785.0  , 353.0  , 370.0  , 811.0  , 331.0  , 383.0  , 831.0  , 312.0  , 385.0  , 840.0  , 288.0  , 403.0  , 856.0  , 268.0  , 383.0  , 867.0  , 250.0  , 382.0  , 879.0  , 253.0  , 386.0  , 892.0  , 261.0  , 393.0  , 892.0  , 262.0  , 418.0  , 903.0  , 287.0  , 397.0  , 895.0  , 314.0  , 391.0  , 887.0  , 713.0  , 410.0  , 882.0  , 794.0  , 402.0  , 873.0  , 786.0  , 424.0  , 886.0  , 810.0  , 438.0  , 885.0  , 783.0  , 474.0  , 880.0  , 725.0  , 507.0  , 870.0  , 648.0  , 541.0  , 853.0  , 581.0  , 601.0  , 848.0  , 583.0  , 617.0  , 837.0  , 652.0  , 643.0  , 834.0  , 681.0  , 661.0  , 834.0  , 729.0  , 686.0  , 829.0  , 820.0  , 738.0  , 840.0  , 886.0  , 764.0  , 846.0  , 963.0  , 755.0  , 841.0  , 957.0  , 750.0  , 837.0  , 951.0  , 747.0  , 847.0  , 915.0  , 743.0  , 855.0  , 921.0  , 737.0  , 866.0  , 844.0  , 790.0  , 880.0  , 922.0  , 753.0  , 892.0  , 881.0  , 728.0  , 892.0  , 886.0  , 693.0  , 890.0  , 823.0  , 634.0  , 878.0  , 918.0  , 609.0  , 892.0  , 910.0  , 536.0  , 896.0  , 866.0  , 506.0  , 899.0  , 890.0  , 497.0  , 911.0  , 815.0  , 493.0  , 932.0  , 803.0  , 448.0  , 941.0  , 749.0  , 459.0  , 942.0  , 753.0  , 433.0  , 940.0  , 709.0  , 455.0  , 934.0  , 699.0  , 512.0  , 929.0  , 663.0  , 536.0  , 916.0  , 697.0  , 548.0  , 910.0  , 714.0  , 551.0  , 895.0  , 711.0  , 626.0  , 898.0  , 701.0  , 613.0  , 893.0  , 675.0  , 564.0  , 883.0  , 615.0  , 602.0  , 882.0  , 799.0  , 585.0  , 860.0  , 838.0  , 851.0  , 844.0  , 765.0  , 802.0  , 819.0  , 751.0  , 826.0  , 800.0  , 854.0  , 968.0  , 767.0  , 815.0  , 970.0  , 737.0  , 821.0  , 972.0  , 722.0  , 967.0  , 936.0  , 694.0  , 969.0  , 937.0  , 678.0  , 971.0  , 894.0  , 637.0  , 949.0  , 970.0 );
                        kernels[25] = compute_kernel(x,   57.0  , 140.0  , 225.0  , 57.0  , 138.0  , 232.0  , 59.0  , 135.0  , 238.0  , 56.0  , 135.0  , 240.0  , 56.0  , 134.0  , 233.0  , 59.0  , 141.0  , 218.0  , 60.0  , 138.0  , 223.0  , 65.0  , 134.0  , 217.0  , 64.0  , 129.0  , 229.0  , 65.0  , 134.0  , 238.0  , 65.0  , 138.0  , 231.0  , 66.0  , 134.0  , 234.0  , 65.0  , 136.0  , 233.0  , 65.0  , 140.0  , 234.0  , 68.0  , 157.0  , 224.0  , 72.0  , 153.0  , 215.0  , 68.0  , 156.0  , 229.0  , 69.0  , 166.0  , 228.0  , 64.0  , 182.0  , 243.0  , 66.0  , 176.0  , 235.0  , 61.0  , 177.0  , 241.0  , 64.0  , 173.0  , 233.0  , 66.0  , 180.0  , 221.0  , 62.0  , 176.0  , 214.0  , 61.0  , 174.0  , 206.0  , 59.0  , 174.0  , 213.0  , 60.0  , 168.0  , 210.0  , 58.0  , 173.0  , 201.0  , 57.0  , 166.0  , 197.0  , 60.0  , 164.0  , 201.0  , 66.0  , 162.0  , 196.0  , 67.0  , 158.0  , 207.0  , 78.0  , 157.0  , 204.0  , 80.0  , 154.0  , 194.0  , 86.0  , 163.0  , 199.0  , 95.0  , 163.0  , 202.0  , 99.0  , 155.0  , 188.0  , 117.0  , 151.0  , 174.0  , 126.0  , 154.0  , 171.0  , 139.0  , 153.0  , 164.0  , 148.0  , 160.0  , 154.0  , 166.0  , 154.0  , 152.0  , 166.0  , 169.0  , 160.0  , 172.0  , 194.0  , 158.0  , 180.0  , 191.0  , 158.0  , 183.0  , 203.0  , 172.0  , 177.0  , 203.0  , 174.0  , 177.0  , 215.0  , 170.0  , 170.0  , 228.0  , 166.0  , 166.0  , 225.0  , 152.0  , 160.0  , 234.0  , 157.0  , 142.0  , 240.0  , 153.0  , 132.0  , 280.0  , 149.0  , 121.0  , 270.0  , 142.0  , 113.0  , 252.0  , 142.0  , 107.0  , 242.0  , 140.0  , 105.0  , 229.0  , 156.0  , 98.0  , 221.0  , 153.0  , 95.0  , 206.0  , 163.0  , 90.0  , 200.0  , 186.0  , 89.0  , 219.0  , 188.0  , 85.0  , 233.0  , 176.0  , 82.0  , 222.0  , 173.0  , 78.0  , 229.0  , 189.0  , 74.0  , 224.0  , 215.0  , 73.0  , 214.0  , 203.0  , 71.0  , 242.0  , 216.0  , 68.0  , 238.0  , 226.0  , 71.0  , 232.0  , 234.0  , 66.0  , 239.0  , 266.0  , 66.0  , 259.0  , 257.0  , 63.0  , 260.0  , 249.0  , 61.0  , 257.0  , 247.0  , 60.0  , 248.0  , 236.0  , 60.0  , 262.0  , 219.0  , 52.0  , 270.0  , 242.0  , 57.0  , 289.0  , 291.0  , 54.0  , 276.0  , 310.0  , 63.0  , 303.0  , 283.0  , 64.0  , 308.0  , 305.0  , 64.0  , 319.0  , 286.0  , 70.0  , 316.0  , 293.0  , 67.0  , 339.0  , 339.0  , 64.0  , 348.0  , 311.0  , 62.0  , 359.0  , 303.0  , 62.0  , 380.0  , 298.0  , 62.0  , 395.0  , 336.0  , 65.0  , 374.0  , 344.0  , 69.0  , 379.0  , 343.0  , 67.0  , 405.0  , 371.0 );
                        kernels[26] = compute_kernel(x,   115.0  , 329.0  , 177.0  , 116.0  , 347.0  , 186.0  , 111.0  , 347.0  , 189.0  , 109.0  , 345.0  , 218.0  , 105.0  , 340.0  , 218.0  , 104.0  , 330.0  , 223.0  , 104.0  , 330.0  , 252.0  , 99.0  , 319.0  , 256.0  , 99.0  , 310.0  , 268.0  , 98.0  , 304.0  , 283.0  , 96.0  , 290.0  , 297.0  , 98.0  , 283.0  , 315.0  , 94.0  , 267.0  , 334.0  , 92.0  , 253.0  , 347.0  , 89.0  , 249.0  , 359.0  , 89.0  , 244.0  , 372.0  , 88.0  , 234.0  , 380.0  , 86.0  , 226.0  , 375.0  , 85.0  , 223.0  , 380.0  , 81.0  , 215.0  , 378.0  , 79.0  , 212.0  , 382.0  , 80.0  , 212.0  , 388.0  , 76.0  , 204.0  , 384.0  , 76.0  , 205.0  , 378.0  , 72.0  , 202.0  , 380.0  , 70.0  , 204.0  , 406.0  , 70.0  , 204.0  , 403.0  , 68.0  , 193.0  , 369.0  , 67.0  , 195.0  , 365.0  , 64.0  , 189.0  , 345.0  , 65.0  , 189.0  , 342.0  , 63.0  , 200.0  , 336.0  , 59.0  , 194.0  , 330.0  , 61.0  , 198.0  , 349.0  , 59.0  , 187.0  , 340.0  , 59.0  , 190.0  , 323.0  , 57.0  , 182.0  , 328.0  , 57.0  , 181.0  , 325.0  , 57.0  , 184.0  , 334.0  , 56.0  , 182.0  , 341.0  , 58.0  , 179.0  , 347.0  , 59.0  , 178.0  , 349.0  , 66.0  , 171.0  , 330.0  , 70.0  , 171.0  , 339.0  , 76.0  , 164.0  , 340.0  , 87.0  , 167.0  , 318.0  , 93.0  , 162.0  , 303.0  , 114.0  , 166.0  , 292.0  , 127.0  , 164.0  , 281.0  , 145.0  , 161.0  , 294.0  , 163.0  , 157.0  , 330.0  , 181.0  , 157.0  , 324.0  , 212.0  , 154.0  , 296.0  , 234.0  , 174.0  , 281.0  , 256.0  , 177.0  , 277.0  , 279.0  , 179.0  , 318.0  , 298.0  , 169.0  , 308.0  , 328.0  , 191.0  , 310.0  , 344.0  , 209.0  , 300.0  , 370.0  , 204.0  , 284.0  , 394.0  , 214.0  , 293.0  , 409.0  , 209.0  , 295.0  , 437.0  , 224.0  , 292.0  , 454.0  , 227.0  , 279.0  , 462.0  , 220.0  , 268.0  , 467.0  , 234.0  , 311.0  , 458.0  , 285.0  , 329.0  , 456.0  , 306.0  , 325.0  , 437.0  , 326.0  , 390.0  , 417.0  , 318.0  , 389.0  , 394.0  , 351.0  , 378.0  , 390.0  , 351.0  , 376.0  , 385.0  , 339.0  , 358.0  , 372.0  , 324.0  , 369.0  , 377.0  , 341.0  , 348.0  , 376.0  , 348.0  , 373.0  , 382.0  , 386.0  , 359.0  , 384.0  , 353.0  , 348.0  , 393.0  , 322.0  , 429.0  , 404.0  , 311.0  , 399.0  , 421.0  , 324.0  , 374.0  , 425.0  , 324.0  , 406.0  , 437.0  , 300.0  , 410.0  , 457.0  , 293.0  , 452.0  , 480.0  , 303.0  , 428.0  , 500.0  , 320.0  , 424.0  , 519.0  , 310.0  , 402.0  , 549.0  , 282.0  , 442.0  , 576.0  , 298.0  , 421.0  , 588.0  , 316.0  , 383.0 );
                        kernels[27] = compute_kernel(x,   106.0  , 218.0  , 462.0  , 111.0  , 228.0  , 455.0  , 121.0  , 213.0  , 440.0  , 133.0  , 201.0  , 462.0  , 157.0  , 197.0  , 459.0  , 178.0  , 193.0  , 448.0  , 199.0  , 189.0  , 449.0  , 219.0  , 192.0  , 477.0  , 250.0  , 197.0  , 491.0  , 291.0  , 198.0  , 480.0  , 320.0  , 193.0  , 476.0  , 365.0  , 193.0  , 450.0  , 402.0  , 189.0  , 451.0  , 435.0  , 184.0  , 466.0  , 470.0  , 192.0  , 452.0  , 493.0  , 206.0  , 462.0  , 519.0  , 204.0  , 433.0  , 533.0  , 219.0  , 456.0  , 545.0  , 239.0  , 452.0  , 562.0  , 244.0  , 443.0  , 563.0  , 243.0  , 463.0  , 572.0  , 232.0  , 446.0  , 569.0  , 215.0  , 461.0  , 563.0  , 219.0  , 477.0  , 556.0  , 230.0  , 468.0  , 538.0  , 228.0  , 478.0  , 532.0  , 238.0  , 479.0  , 526.0  , 227.0  , 469.0  , 521.0  , 219.0  , 486.0  , 523.0  , 218.0  , 484.0  , 515.0  , 237.0  , 464.0  , 524.0  , 261.0  , 491.0  , 525.0  , 243.0  , 502.0  , 531.0  , 255.0  , 499.0  , 545.0  , 282.0  , 491.0  , 539.0  , 298.0  , 525.0  , 533.0  , 318.0  , 514.0  , 517.0  , 340.0  , 510.0  , 510.0  , 351.0  , 538.0  , 511.0  , 384.0  , 513.0  , 505.0  , 401.0  , 487.0  , 510.0  , 434.0  , 475.0  , 507.0  , 404.0  , 490.0  , 512.0  , 467.0  , 501.0  , 518.0  , 527.0  , 496.0  , 515.0  , 542.0  , 472.0  , 521.0  , 619.0  , 444.0  , 525.0  , 633.0  , 428.0  , 532.0  , 659.0  , 420.0  , 543.0  , 643.0  , 452.0  , 544.0  , 632.0  , 428.0  , 544.0  , 632.0  , 417.0  , 550.0  , 660.0  , 428.0  , 539.0  , 611.0  , 457.0  , 529.0  , 587.0  , 420.0  , 525.0  , 554.0  , 460.0  , 521.0  , 581.0  , 445.0  , 505.0  , 558.0  , 474.0  , 476.0  , 507.0  , 555.0  , 449.0  , 485.0  , 637.0  , 416.0  , 492.0  , 728.0  , 365.0  , 512.0  , 687.0  , 333.0  , 647.0  , 753.0  , 314.0  , 774.0  , 758.0  , 304.0  , 762.0  , 681.0  , 297.0  , 861.0  , 740.0  , 281.0  , 832.0  , 679.0  , 278.0  , 750.0  , 676.0  , 280.0  , 706.0  , 700.0  , 260.0  , 685.0  , 656.0  , 251.0  , 789.0  , 738.0  , 245.0  , 796.0  , 826.0  , 235.0  , 780.0  , 846.0  , 221.0  , 767.0  , 791.0  , 200.0  , 761.0  , 891.0  , 188.0  , 767.0  , 880.0  , 179.0  , 721.0  , 859.0  , 164.0  , 711.0  , 917.0  , 158.0  , 797.0  , 929.0  , 147.0  , 869.0  , 971.0  , 132.0  , 942.0  , 848.0  , 120.0  , 968.0  , 844.0  , 109.0  , 939.0  , 933.0  , 101.0  , 965.0  , 870.0  , 97.0  , 926.0  , 865.0  , 97.0  , 970.0  , 870.0  , 95.0  , 970.0  , 907.0  , 90.0  , 970.0  , 894.0  , 93.0  , 970.0  , 881.0  , 88.0  , 968.0  , 873.0 );
                        kernels[28] = compute_kernel(x,   161.0  , 208.0  , 377.0  , 154.0  , 211.0  , 378.0  , 153.0  , 200.0  , 389.0  , 156.0  , 191.0  , 436.0  , 168.0  , 179.0  , 427.0  , 165.0  , 170.0  , 399.0  , 183.0  , 180.0  , 397.0  , 173.0  , 180.0  , 387.0  , 181.0  , 182.0  , 373.0  , 190.0  , 174.0  , 351.0  , 182.0  , 173.0  , 330.0  , 214.0  , 187.0  , 328.0  , 203.0  , 181.0  , 323.0  , 196.0  , 201.0  , 306.0  , 193.0  , 206.0  , 321.0  , 195.0  , 203.0  , 297.0  , 196.0  , 198.0  , 285.0  , 205.0  , 187.0  , 300.0  , 216.0  , 186.0  , 306.0  , 210.0  , 179.0  , 314.0  , 223.0  , 175.0  , 317.0  , 228.0  , 194.0  , 304.0  , 242.0  , 190.0  , 349.0  , 257.0  , 200.0  , 346.0  , 271.0  , 200.0  , 315.0  , 292.0  , 188.0  , 317.0  , 306.0  , 183.0  , 296.0  , 326.0  , 199.0  , 263.0  , 341.0  , 193.0  , 251.0  , 340.0  , 185.0  , 247.0  , 352.0  , 183.0  , 245.0  , 357.0  , 185.0  , 241.0  , 364.0  , 177.0  , 279.0  , 372.0  , 175.0  , 291.0  , 372.0  , 173.0  , 291.0  , 367.0  , 172.0  , 317.0  , 353.0  , 176.0  , 301.0  , 343.0  , 169.0  , 296.0  , 331.0  , 213.0  , 331.0  , 303.0  , 230.0  , 342.0  , 291.0  , 225.0  , 329.0  , 263.0  , 215.0  , 380.0  , 242.0  , 231.0  , 358.0  , 222.0  , 236.0  , 331.0  , 202.0  , 244.0  , 360.0  , 193.0  , 244.0  , 378.0  , 187.0  , 259.0  , 360.0  , 179.0  , 287.0  , 623.0  , 171.0  , 291.0  , 698.0  , 168.0  , 299.0  , 675.0  , 168.0  , 314.0  , 667.0  , 169.0  , 368.0  , 651.0  , 158.0  , 445.0  , 671.0  , 148.0  , 460.0  , 603.0  , 138.0  , 469.0  , 558.0  , 129.0  , 536.0  , 525.0  , 121.0  , 557.0  , 548.0  , 125.0  , 528.0  , 569.0  , 132.0  , 593.0  , 537.0  , 147.0  , 609.0  , 522.0  , 152.0  , 691.0  , 526.0  , 184.0  , 680.0  , 484.0  , 212.0  , 650.0  , 515.0  , 241.0  , 609.0  , 545.0  , 256.0  , 695.0  , 527.0  , 297.0  , 684.0  , 530.0  , 324.0  , 767.0  , 511.0  , 355.0  , 785.0  , 569.0  , 387.0  , 825.0  , 621.0  , 429.0  , 767.0  , 593.0  , 454.0  , 758.0  , 644.0  , 498.0  , 862.0  , 698.0  , 519.0  , 879.0  , 662.0  , 543.0  , 867.0  , 638.0  , 548.0  , 906.0  , 705.0  , 543.0  , 813.0  , 704.0  , 535.0  , 830.0  , 728.0  , 545.0  , 774.0  , 778.0  , 565.0  , 842.0  , 762.0  , 568.0  , 968.0  , 814.0  , 569.0  , 955.0  , 741.0  , 567.0  , 943.0  , 755.0  , 564.0  , 897.0  , 832.0  , 556.0  , 856.0  , 909.0  , 548.0  , 865.0  , 883.0  , 550.0  , 784.0  , 858.0  , 544.0  , 911.0  , 837.0  , 531.0  , 948.0  , 826.0  , 516.0  , 955.0  , 781.0  , 500.0  , 946.0  , 834.0 );
                        kernels[29] = compute_kernel(x,   142.0  , 191.0  , 221.0  , 137.0  , 190.0  , 212.0  , 138.0  , 190.0  , 200.0  , 133.0  , 197.0  , 212.0  , 136.0  , 189.0  , 231.0  , 141.0  , 192.0  , 216.0  , 143.0  , 198.0  , 213.0  , 150.0  , 193.0  , 224.0  , 146.0  , 201.0  , 217.0  , 153.0  , 193.0  , 209.0  , 155.0  , 199.0  , 232.0  , 157.0  , 195.0  , 225.0  , 169.0  , 202.0  , 212.0  , 168.0  , 211.0  , 224.0  , 172.0  , 202.0  , 232.0  , 178.0  , 209.0  , 247.0  , 184.0  , 217.0  , 236.0  , 196.0  , 212.0  , 259.0  , 194.0  , 213.0  , 246.0  , 201.0  , 205.0  , 251.0  , 203.0  , 210.0  , 248.0  , 202.0  , 208.0  , 236.0  , 210.0  , 205.0  , 239.0  , 209.0  , 215.0  , 270.0  , 215.0  , 209.0  , 291.0  , 224.0  , 235.0  , 284.0  , 220.0  , 239.0  , 279.0  , 231.0  , 231.0  , 265.0  , 230.0  , 242.0  , 254.0  , 241.0  , 232.0  , 244.0  , 250.0  , 225.0  , 235.0  , 253.0  , 217.0  , 293.0  , 262.0  , 207.0  , 292.0  , 264.0  , 199.0  , 281.0  , 274.0  , 211.0  , 296.0  , 281.0  , 211.0  , 333.0  , 288.0  , 213.0  , 319.0  , 300.0  , 213.0  , 306.0  , 310.0  , 210.0  , 291.0  , 334.0  , 196.0  , 274.0  , 352.0  , 208.0  , 293.0  , 369.0  , 215.0  , 308.0  , 387.0  , 209.0  , 301.0  , 396.0  , 204.0  , 311.0  , 373.0  , 203.0  , 329.0  , 377.0  , 204.0  , 353.0  , 366.0  , 216.0  , 375.0  , 475.0  , 222.0  , 409.0  , 511.0  , 233.0  , 446.0  , 587.0  , 229.0  , 452.0  , 626.0  , 226.0  , 460.0  , 631.0  , 223.0  , 450.0  , 634.0  , 213.0  , 443.0  , 650.0  , 208.0  , 516.0  , 669.0  , 217.0  , 523.0  , 676.0  , 218.0  , 521.0  , 688.0  , 252.0  , 553.0  , 695.0  , 301.0  , 593.0  , 683.0  , 298.0  , 525.0  , 664.0  , 292.0  , 554.0  , 654.0  , 285.0  , 504.0  , 634.0  , 286.0  , 468.0  , 631.0  , 301.0  , 502.0  , 623.0  , 293.0  , 465.0  , 619.0  , 288.0  , 432.0  , 606.0  , 295.0  , 406.0  , 606.0  , 323.0  , 373.0  , 613.0  , 303.0  , 390.0  , 631.0  , 320.0  , 424.0  , 654.0  , 319.0  , 403.0  , 660.0  , 303.0  , 404.0  , 668.0  , 298.0  , 563.0  , 692.0  , 288.0  , 564.0  , 710.0  , 271.0  , 710.0  , 716.0  , 287.0  , 784.0  , 748.0  , 284.0  , 797.0  , 820.0  , 295.0  , 825.0  , 873.0  , 319.0  , 766.0  , 917.0  , 355.0  , 758.0  , 955.0  , 363.0  , 769.0  , 969.0  , 390.0  , 780.0  , 970.0  , 389.0  , 747.0  , 970.0  , 450.0  , 687.0  , 969.0  , 441.0  , 664.0  , 970.0  , 392.0  , 697.0  , 969.0  , 380.0  , 631.0  , 970.0  , 345.0  , 617.0  , 970.0  , 422.0  , 625.0  , 970.0  , 398.0  , 571.0  , 969.0  , 430.0  , 583.0 );
                        kernels[30] = compute_kernel(x,   101.0  , 206.0  , 219.0  , 107.0  , 209.0  , 211.0  , 106.0  , 229.0  , 205.0  , 117.0  , 219.0  , 211.0  , 120.0  , 214.0  , 233.0  , 129.0  , 220.0  , 248.0  , 139.0  , 223.0  , 230.0  , 140.0  , 244.0  , 217.0  , 153.0  , 239.0  , 215.0  , 156.0  , 247.0  , 212.0  , 169.0  , 239.0  , 209.0  , 178.0  , 249.0  , 198.0  , 180.0  , 269.0  , 206.0  , 192.0  , 257.0  , 202.0  , 201.0  , 271.0  , 200.0  , 213.0  , 259.0  , 188.0  , 224.0  , 259.0  , 185.0  , 229.0  , 248.0  , 185.0  , 244.0  , 234.0  , 193.0  , 249.0  , 229.0  , 216.0  , 255.0  , 226.0  , 225.0  , 259.0  , 225.0  , 231.0  , 257.0  , 216.0  , 227.0  , 261.0  , 217.0  , 208.0  , 256.0  , 236.0  , 215.0  , 249.0  , 237.0  , 224.0  , 237.0  , 230.0  , 221.0  , 220.0  , 222.0  , 214.0  , 212.0  , 212.0  , 230.0  , 198.0  , 211.0  , 225.0  , 185.0  , 210.0  , 222.0  , 174.0  , 204.0  , 227.0  , 162.0  , 190.0  , 226.0  , 160.0  , 223.0  , 245.0  , 158.0  , 219.0  , 232.0  , 160.0  , 207.0  , 224.0  , 157.0  , 201.0  , 232.0  , 150.0  , 191.0  , 231.0  , 161.0  , 211.0  , 252.0  , 162.0  , 210.0  , 264.0  , 184.0  , 275.0  , 259.0  , 201.0  , 303.0  , 250.0  , 209.0  , 312.0  , 236.0  , 219.0  , 318.0  , 268.0  , 235.0  , 335.0  , 269.0  , 253.0  , 335.0  , 257.0  , 263.0  , 324.0  , 251.0  , 258.0  , 352.0  , 284.0  , 267.0  , 336.0  , 266.0  , 266.0  , 351.0  , 262.0  , 285.0  , 329.0  , 280.0  , 302.0  , 319.0  , 295.0  , 314.0  , 362.0  , 297.0  , 313.0  , 363.0  , 318.0  , 332.0  , 360.0  , 351.0  , 341.0  , 353.0  , 340.0  , 354.0  , 352.0  , 369.0  , 375.0  , 328.0  , 374.0  , 404.0  , 336.0  , 364.0  , 441.0  , 357.0  , 403.0  , 450.0  , 450.0  , 377.0  , 462.0  , 439.0  , 396.0  , 466.0  , 448.0  , 380.0  , 481.0  , 418.0  , 422.0  , 486.0  , 409.0  , 484.0  , 498.0  , 402.0  , 483.0  , 517.0  , 377.0  , 528.0  , 526.0  , 375.0  , 657.0  , 526.0  , 393.0  , 668.0  , 523.0  , 449.0  , 626.0  , 520.0  , 476.0  , 637.0  , 519.0  , 475.0  , 614.0  , 498.0  , 463.0  , 607.0  , 494.0  , 430.0  , 671.0  , 491.0  , 408.0  , 631.0  , 476.0  , 372.0  , 737.0  , 467.0  , 495.0  , 716.0  , 446.0  , 590.0  , 825.0  , 462.0  , 552.0  , 852.0  , 469.0  , 501.0  , 832.0  , 455.0  , 491.0  , 931.0  , 457.0  , 479.0  , 937.0  , 460.0  , 459.0  , 895.0  , 453.0  , 457.0  , 970.0  , 449.0  , 635.0  , 907.0  , 446.0  , 661.0  , 898.0  , 447.0  , 708.0  , 899.0  , 449.0  , 729.0  , 840.0  , 446.0  , 719.0  , 858.0  , 443.0  , 668.0  , 803.0 );
                        kernels[31] = compute_kernel(x,   76.0  , 288.0  , 264.0  , 76.0  , 284.0  , 262.0  , 77.0  , 272.0  , 256.0  , 79.0  , 277.0  , 277.0  , 79.0  , 271.0  , 275.0  , 84.0  , 270.0  , 310.0  , 84.0  , 261.0  , 305.0  , 90.0  , 264.0  , 294.0  , 95.0  , 281.0  , 274.0  , 93.0  , 261.0  , 257.0  , 97.0  , 252.0  , 261.0  , 98.0  , 246.0  , 266.0  , 104.0  , 237.0  , 258.0  , 104.0  , 230.0  , 281.0  , 102.0  , 225.0  , 290.0  , 108.0  , 219.0  , 278.0  , 109.0  , 227.0  , 271.0  , 114.0  , 224.0  , 284.0  , 118.0  , 247.0  , 317.0  , 114.0  , 255.0  , 354.0  , 116.0  , 243.0  , 368.0  , 111.0  , 245.0  , 456.0  , 116.0  , 230.0  , 495.0  , 116.0  , 226.0  , 511.0  , 112.0  , 221.0  , 515.0  , 112.0  , 227.0  , 496.0  , 112.0  , 265.0  , 512.0  , 114.0  , 307.0  , 567.0  , 120.0  , 305.0  , 550.0  , 131.0  , 290.0  , 537.0  , 139.0  , 277.0  , 503.0  , 142.0  , 296.0  , 491.0  , 144.0  , 288.0  , 472.0  , 158.0  , 276.0  , 468.0  , 163.0  , 276.0  , 471.0  , 173.0  , 291.0  , 478.0  , 182.0  , 286.0  , 500.0  , 203.0  , 296.0  , 508.0  , 218.0  , 279.0  , 497.0  , 225.0  , 292.0  , 483.0  , 250.0  , 275.0  , 490.0  , 260.0  , 277.0  , 542.0  , 269.0  , 254.0  , 567.0  , 291.0  , 245.0  , 570.0  , 296.0  , 238.0  , 592.0  , 311.0  , 233.0  , 629.0  , 325.0  , 239.0  , 618.0  , 334.0  , 237.0  , 564.0  , 336.0  , 229.0  , 554.0  , 334.0  , 224.0  , 616.0  , 346.0  , 221.0  , 658.0  , 351.0  , 205.0  , 649.0  , 355.0  , 200.0  , 632.0  , 351.0  , 241.0  , 701.0  , 340.0  , 254.0  , 771.0  , 341.0  , 244.0  , 779.0  , 326.0  , 265.0  , 774.0  , 298.0  , 257.0  , 756.0  , 275.0  , 236.0  , 711.0  , 258.0  , 224.0  , 730.0  , 229.0  , 263.0  , 700.0  , 207.0  , 266.0  , 827.0  , 183.0  , 281.0  , 849.0  , 172.0  , 278.0  , 873.0  , 155.0  , 365.0  , 879.0  , 162.0  , 359.0  , 969.0  , 151.0  , 373.0  , 971.0  , 143.0  , 505.0  , 970.0  , 146.0  , 568.0  , 970.0  , 144.0  , 590.0  , 970.0  , 132.0  , 580.0  , 971.0  , 125.0  , 591.0  , 971.0  , 128.0  , 553.0  , 972.0  , 117.0  , 532.0  , 969.0  , 107.0  , 569.0  , 970.0  , 100.0  , 579.0  , 971.0  , 93.0  , 578.0  , 971.0  , 91.0  , 608.0  , 969.0  , 92.0  , 711.0  , 969.0  , 99.0  , 718.0  , 971.0  , 94.0  , 758.0  , 970.0  , 91.0  , 686.0  , 971.0  , 89.0  , 700.0  , 971.0  , 89.0  , 711.0  , 964.0  , 86.0  , 694.0  , 970.0  , 91.0  , 652.0  , 971.0  , 95.0  , 647.0  , 971.0  , 92.0  , 649.0  , 970.0  , 87.0  , 676.0  , 971.0  , 82.0  , 694.0  , 971.0 );
                        kernels[32] = compute_kernel(x,   84.0  , 143.0  , 362.0  , 85.0  , 142.0  , 354.0  , 86.0  , 142.0  , 360.0  , 84.0  , 148.0  , 363.0  , 80.0  , 153.0  , 373.0  , 77.0  , 147.0  , 352.0  , 73.0  , 146.0  , 349.0  , 71.0  , 143.0  , 371.0  , 72.0  , 139.0  , 356.0  , 69.0  , 138.0  , 359.0  , 70.0  , 142.0  , 361.0  , 68.0  , 143.0  , 354.0  , 69.0  , 142.0  , 345.0  , 69.0  , 143.0  , 349.0  , 70.0  , 143.0  , 349.0  , 70.0  , 140.0  , 349.0  , 71.0  , 143.0  , 334.0  , 70.0  , 145.0  , 335.0  , 74.0  , 140.0  , 328.0  , 75.0  , 138.0  , 319.0  , 86.0  , 136.0  , 349.0  , 92.0  , 152.0  , 355.0  , 100.0  , 157.0  , 333.0  , 115.0  , 158.0  , 333.0  , 119.0  , 156.0  , 338.0  , 134.0  , 174.0  , 321.0  , 139.0  , 179.0  , 323.0  , 153.0  , 178.0  , 311.0  , 168.0  , 179.0  , 310.0  , 176.0  , 192.0  , 309.0  , 199.0  , 203.0  , 292.0  , 218.0  , 195.0  , 280.0  , 234.0  , 199.0  , 294.0  , 249.0  , 198.0  , 283.0  , 260.0  , 202.0  , 293.0  , 284.0  , 210.0  , 295.0  , 300.0  , 203.0  , 319.0  , 323.0  , 244.0  , 302.0  , 347.0  , 240.0  , 332.0  , 367.0  , 235.0  , 308.0  , 393.0  , 271.0  , 288.0  , 405.0  , 269.0  , 290.0  , 421.0  , 269.0  , 292.0  , 437.0  , 274.0  , 299.0  , 449.0  , 277.0  , 319.0  , 478.0  , 286.0  , 289.0  , 498.0  , 281.0  , 284.0  , 513.0  , 281.0  , 269.0  , 527.0  , 281.0  , 265.0  , 534.0  , 280.0  , 256.0  , 549.0  , 312.0  , 255.0  , 556.0  , 300.0  , 248.0  , 554.0  , 287.0  , 236.0  , 550.0  , 288.0  , 235.0  , 536.0  , 275.0  , 222.0  , 537.0  , 301.0  , 209.0  , 528.0  , 338.0  , 225.0  , 520.0  , 319.0  , 213.0  , 525.0  , 302.0  , 228.0  , 499.0  , 316.0  , 272.0  , 506.0  , 312.0  , 285.0  , 502.0  , 298.0  , 299.0  , 500.0  , 280.0  , 364.0  , 495.0  , 269.0  , 368.0  , 500.0  , 269.0  , 371.0  , 478.0  , 285.0  , 405.0  , 450.0  , 289.0  , 463.0  , 424.0  , 310.0  , 565.0  , 412.0  , 349.0  , 496.0  , 389.0  , 402.0  , 476.0  , 359.0  , 436.0  , 451.0  , 328.0  , 460.0  , 419.0  , 306.0  , 435.0  , 417.0  , 276.0  , 471.0  , 406.0  , 262.0  , 499.0  , 416.0  , 243.0  , 500.0  , 391.0  , 232.0  , 466.0  , 386.0  , 222.0  , 509.0  , 383.0  , 200.0  , 541.0  , 344.0  , 180.0  , 575.0  , 330.0  , 169.0  , 568.0  , 373.0  , 156.0  , 575.0  , 398.0  , 142.0  , 575.0  , 371.0  , 129.0  , 585.0  , 356.0  , 126.0  , 579.0  , 334.0  , 122.0  , 560.0  , 334.0  , 128.0  , 580.0  , 320.0  , 133.0  , 589.0  , 357.0  , 136.0  , 589.0  , 399.0  , 151.0  , 693.0  , 371.0 );
                        kernels[33] = compute_kernel(x,   411.0  , 318.0  , 171.0  , 407.0  , 308.0  , 169.0  , 403.0  , 287.0  , 176.0  , 399.0  , 282.0  , 169.0  , 401.0  , 267.0  , 167.0  , 392.0  , 261.0  , 155.0  , 389.0  , 252.0  , 153.0  , 397.0  , 257.0  , 154.0  , 393.0  , 245.0  , 150.0  , 399.0  , 231.0  , 158.0  , 396.0  , 224.0  , 172.0  , 404.0  , 225.0  , 186.0  , 409.0  , 220.0  , 202.0  , 413.0  , 224.0  , 215.0  , 416.0  , 218.0  , 225.0  , 414.0  , 239.0  , 232.0  , 415.0  , 227.0  , 238.0  , 427.0  , 215.0  , 248.0  , 417.0  , 213.0  , 247.0  , 420.0  , 207.0  , 252.0  , 411.0  , 206.0  , 254.0  , 406.0  , 210.0  , 261.0  , 401.0  , 200.0  , 271.0  , 391.0  , 203.0  , 272.0  , 396.0  , 207.0  , 279.0  , 400.0  , 197.0  , 280.0  , 405.0  , 196.0  , 275.0  , 416.0  , 192.0  , 283.0  , 416.0  , 187.0  , 270.0  , 426.0  , 179.0  , 282.0  , 426.0  , 178.0  , 267.0  , 428.0  , 177.0  , 258.0  , 434.0  , 173.0  , 266.0  , 434.0  , 195.0  , 272.0  , 448.0  , 196.0  , 270.0  , 457.0  , 200.0  , 278.0  , 452.0  , 198.0  , 280.0  , 448.0  , 197.0  , 281.0  , 434.0  , 202.0  , 324.0  , 432.0  , 204.0  , 348.0  , 424.0  , 217.0  , 327.0  , 422.0  , 231.0  , 336.0  , 431.0  , 236.0  , 337.0  , 427.0  , 243.0  , 344.0  , 430.0  , 251.0  , 345.0  , 433.0  , 264.0  , 361.0  , 429.0  , 273.0  , 343.0  , 439.0  , 276.0  , 361.0  , 441.0  , 287.0  , 366.0  , 449.0  , 290.0  , 367.0  , 454.0  , 280.0  , 377.0  , 456.0  , 271.0  , 377.0  , 458.0  , 282.0  , 374.0  , 460.0  , 279.0  , 394.0  , 448.0  , 303.0  , 376.0  , 421.0  , 301.0  , 369.0  , 426.0  , 294.0  , 348.0  , 446.0  , 271.0  , 367.0  , 440.0  , 291.0  , 433.0  , 421.0  , 277.0  , 463.0  , 402.0  , 268.0  , 422.0  , 384.0  , 269.0  , 385.0  , 360.0  , 261.0  , 351.0  , 334.0  , 288.0  , 335.0  , 306.0  , 274.0  , 356.0  , 269.0  , 275.0  , 322.0  , 234.0  , 256.0  , 297.0  , 207.0  , 247.0  , 304.0  , 185.0  , 243.0  , 335.0  , 172.0  , 230.0  , 365.0  , 162.0  , 241.0  , 346.0  , 161.0  , 261.0  , 353.0  , 155.0  , 315.0  , 389.0  , 165.0  , 284.0  , 437.0  , 191.0  , 289.0  , 419.0  , 207.0  , 314.0  , 430.0  , 224.0  , 329.0  , 423.0  , 249.0  , 317.0  , 424.0  , 271.0  , 322.0  , 396.0  , 277.0  , 374.0  , 379.0  , 286.0  , 363.0  , 424.0  , 303.0  , 326.0  , 400.0  , 312.0  , 317.0  , 435.0  , 320.0  , 373.0  , 422.0  , 339.0  , 386.0  , 465.0  , 363.0  , 366.0  , 545.0  , 402.0  , 360.0  , 651.0  , 407.0  , 344.0  , 815.0  , 424.0  , 332.0  , 781.0  , 413.0  , 325.0  , 748.0 );
                        kernels[34] = compute_kernel(x,   95.0  , 238.0  , 168.0  , 94.0  , 244.0  , 168.0  , 98.0  , 229.0  , 159.0  , 96.0  , 224.0  , 176.0  , 99.0  , 232.0  , 189.0  , 102.0  , 236.0  , 199.0  , 103.0  , 244.0  , 199.0  , 108.0  , 232.0  , 207.0  , 116.0  , 234.0  , 207.0  , 123.0  , 228.0  , 201.0  , 128.0  , 221.0  , 199.0  , 133.0  , 230.0  , 191.0  , 141.0  , 220.0  , 187.0  , 139.0  , 216.0  , 173.0  , 146.0  , 215.0  , 170.0  , 146.0  , 212.0  , 163.0  , 145.0  , 201.0  , 163.0  , 153.0  , 220.0  , 161.0  , 155.0  , 225.0  , 159.0  , 168.0  , 209.0  , 161.0  , 175.0  , 210.0  , 162.0  , 176.0  , 202.0  , 155.0  , 190.0  , 194.0  , 152.0  , 194.0  , 183.0  , 160.0  , 210.0  , 184.0  , 162.0  , 230.0  , 177.0  , 187.0  , 237.0  , 183.0  , 210.0  , 260.0  , 177.0  , 222.0  , 275.0  , 171.0  , 216.0  , 299.0  , 178.0  , 216.0  , 322.0  , 180.0  , 212.0  , 347.0  , 183.0  , 216.0  , 384.0  , 187.0  , 215.0  , 409.0  , 195.0  , 220.0  , 445.0  , 219.0  , 240.0  , 477.0  , 223.0  , 255.0  , 504.0  , 217.0  , 282.0  , 539.0  , 237.0  , 330.0  , 568.0  , 242.0  , 339.0  , 603.0  , 247.0  , 373.0  , 640.0  , 262.0  , 392.0  , 670.0  , 266.0  , 395.0  , 706.0  , 279.0  , 406.0  , 738.0  , 285.0  , 438.0  , 773.0  , 299.0  , 462.0  , 806.0  , 302.0  , 483.0  , 826.0  , 304.0  , 471.0  , 847.0  , 316.0  , 511.0  , 864.0  , 307.0  , 506.0  , 877.0  , 305.0  , 505.0  , 882.0  , 308.0  , 526.0  , 877.0  , 309.0  , 523.0  , 881.0  , 328.0  , 536.0  , 869.0  , 351.0  , 567.0  , 844.0  , 357.0  , 558.0  , 824.0  , 377.0  , 615.0  , 809.0  , 427.0  , 632.0  , 794.0  , 425.0  , 630.0  , 784.0  , 415.0  , 627.0  , 781.0  , 416.0  , 631.0  , 789.0  , 399.0  , 642.0  , 799.0  , 415.0  , 610.0  , 807.0  , 387.0  , 610.0  , 834.0  , 377.0  , 634.0  , 848.0  , 361.0  , 633.0  , 857.0  , 358.0  , 596.0  , 860.0  , 343.0  , 599.0  , 876.0  , 352.0  , 603.0  , 876.0  , 348.0  , 598.0  , 882.0  , 350.0  , 629.0  , 888.0  , 357.0  , 702.0  , 904.0  , 324.0  , 732.0  , 906.0  , 304.0  , 648.0  , 896.0  , 312.0  , 680.0  , 892.0  , 317.0  , 640.0  , 898.0  , 363.0  , 617.0  , 895.0  , 336.0  , 620.0  , 902.0  , 369.0  , 632.0  , 905.0  , 379.0  , 699.0  , 914.0  , 406.0  , 691.0  , 919.0  , 431.0  , 762.0  , 944.0  , 407.0  , 829.0  , 970.0  , 442.0  , 779.0  , 970.0  , 443.0  , 813.0  , 969.0  , 434.0  , 740.0  , 969.0  , 465.0  , 675.0  , 969.0  , 576.0  , 635.0  , 969.0  , 535.0  , 671.0  , 970.0  , 577.0  , 598.0  , 969.0  , 532.0  , 591.0 );
                        kernels[35] = compute_kernel(x,   66.0  , 291.0  , 606.0  , 68.0  , 350.0  , 632.0  , 66.0  , 354.0  , 630.0  , 66.0  , 343.0  , 658.0  , 63.0  , 344.0  , 674.0  , 62.0  , 342.0  , 640.0  , 60.0  , 327.0  , 645.0  , 60.0  , 323.0  , 670.0  , 59.0  , 348.0  , 634.0  , 61.0  , 327.0  , 667.0  , 57.0  , 344.0  , 624.0  , 57.0  , 332.0  , 614.0  , 57.0  , 315.0  , 593.0  , 53.0  , 309.0  , 575.0  , 56.0  , 307.0  , 563.0  , 54.0  , 316.0  , 540.0  , 53.0  , 308.0  , 541.0  , 53.0  , 346.0  , 564.0  , 55.0  , 348.0  , 529.0  , 55.0  , 344.0  , 506.0  , 58.0  , 324.0  , 483.0  , 55.0  , 319.0  , 475.0  , 58.0  , 317.0  , 510.0  , 58.0  , 354.0  , 481.0  , 56.0  , 380.0  , 473.0  , 64.0  , 404.0  , 440.0  , 66.0  , 401.0  , 427.0  , 70.0  , 408.0  , 433.0  , 76.0  , 441.0  , 422.0  , 76.0  , 429.0  , 443.0  , 87.0  , 471.0  , 441.0  , 96.0  , 456.0  , 435.0  , 102.0  , 462.0  , 403.0  , 112.0  , 506.0  , 389.0  , 114.0  , 482.0  , 400.0  , 126.0  , 487.0  , 410.0  , 138.0  , 465.0  , 387.0  , 144.0  , 462.0  , 370.0  , 156.0  , 476.0  , 357.0  , 158.0  , 460.0  , 372.0  , 171.0  , 489.0  , 351.0  , 181.0  , 468.0  , 320.0  , 190.0  , 457.0  , 319.0  , 198.0  , 445.0  , 346.0  , 199.0  , 456.0  , 351.0  , 216.0  , 461.0  , 330.0  , 227.0  , 491.0  , 334.0  , 232.0  , 497.0  , 329.0  , 248.0  , 532.0  , 320.0  , 249.0  , 545.0  , 307.0  , 261.0  , 592.0  , 325.0  , 273.0  , 634.0  , 312.0  , 281.0  , 644.0  , 291.0  , 287.0  , 693.0  , 316.0  , 284.0  , 718.0  , 337.0  , 293.0  , 752.0  , 314.0  , 301.0  , 799.0  , 342.0  , 308.0  , 812.0  , 318.0  , 320.0  , 841.0  , 323.0  , 317.0  , 869.0  , 327.0  , 318.0  , 899.0  , 356.0  , 318.0  , 907.0  , 369.0  , 316.0  , 897.0  , 377.0  , 315.0  , 898.0  , 368.0  , 293.0  , 889.0  , 386.0  , 273.0  , 900.0  , 438.0  , 247.0  , 962.0  , 461.0  , 223.0  , 969.0  , 453.0  , 196.0  , 957.0  , 445.0  , 181.0  , 970.0  , 547.0  , 162.0  , 973.0  , 548.0  , 152.0  , 969.0  , 488.0  , 149.0  , 943.0  , 525.0  , 155.0  , 968.0  , 504.0  , 147.0  , 931.0  , 516.0  , 141.0  , 921.0  , 488.0  , 136.0  , 830.0  , 511.0  , 126.0  , 805.0  , 530.0  , 118.0  , 740.0  , 590.0  , 114.0  , 655.0  , 586.0  , 115.0  , 587.0  , 577.0  , 108.0  , 586.0  , 636.0  , 105.0  , 544.0  , 619.0  , 105.0  , 506.0  , 618.0  , 107.0  , 496.0  , 577.0  , 108.0  , 478.0  , 573.0  , 102.0  , 514.0  , 644.0  , 99.0  , 491.0  , 625.0  , 101.0  , 495.0  , 650.0  , 99.0  , 469.0  , 636.0 );
                        kernels[36] = compute_kernel(x,   320.0  , 178.0  , 189.0  , 327.0  , 180.0  , 178.0  , 341.0  , 180.0  , 213.0  , 344.0  , 179.0  , 205.0  , 348.0  , 189.0  , 205.0  , 352.0  , 200.0  , 219.0  , 347.0  , 214.0  , 210.0  , 351.0  , 215.0  , 224.0  , 349.0  , 218.0  , 226.0  , 344.0  , 218.0  , 210.0  , 342.0  , 236.0  , 221.0  , 336.0  , 246.0  , 204.0  , 342.0  , 258.0  , 196.0  , 342.0  , 285.0  , 199.0  , 344.0  , 297.0  , 202.0  , 338.0  , 298.0  , 197.0  , 332.0  , 318.0  , 197.0  , 315.0  , 325.0  , 199.0  , 306.0  , 332.0  , 202.0  , 307.0  , 336.0  , 211.0  , 307.0  , 356.0  , 199.0  , 301.0  , 388.0  , 204.0  , 305.0  , 376.0  , 201.0  , 300.0  , 360.0  , 198.0  , 297.0  , 356.0  , 200.0  , 293.0  , 362.0  , 207.0  , 278.0  , 344.0  , 234.0  , 286.0  , 349.0  , 229.0  , 303.0  , 360.0  , 269.0  , 287.0  , 370.0  , 283.0  , 267.0  , 403.0  , 343.0  , 255.0  , 456.0  , 381.0  , 251.0  , 445.0  , 392.0  , 228.0  , 443.0  , 429.0  , 206.0  , 440.0  , 429.0  , 191.0  , 459.0  , 438.0  , 180.0  , 473.0  , 484.0  , 172.0  , 492.0  , 469.0  , 181.0  , 509.0  , 477.0  , 224.0  , 563.0  , 526.0  , 239.0  , 545.0  , 548.0  , 270.0  , 535.0  , 524.0  , 304.0  , 522.0  , 556.0  , 332.0  , 552.0  , 553.0  , 357.0  , 501.0  , 548.0  , 387.0  , 468.0  , 585.0  , 424.0  , 426.0  , 574.0  , 459.0  , 394.0  , 577.0  , 495.0  , 388.0  , 538.0  , 510.0  , 361.0  , 526.0  , 510.0  , 351.0  , 564.0  , 512.0  , 321.0  , 525.0  , 509.0  , 327.0  , 534.0  , 500.0  , 341.0  , 511.0  , 468.0  , 379.0  , 490.0  , 440.0  , 347.0  , 509.0  , 408.0  , 346.0  , 501.0  , 373.0  , 359.0  , 634.0  , 338.0  , 347.0  , 657.0  , 308.0  , 341.0  , 680.0  , 278.0  , 334.0  , 641.0  , 256.0  , 315.0  , 720.0  , 225.0  , 325.0  , 747.0  , 200.0  , 349.0  , 779.0  , 185.0  , 432.0  , 935.0  , 186.0  , 437.0  , 871.0  , 186.0  , 409.0  , 820.0  , 175.0  , 532.0  , 800.0  , 169.0  , 551.0  , 737.0  , 152.0  , 542.0  , 854.0  , 141.0  , 556.0  , 875.0  , 132.0  , 553.0  , 788.0  , 121.0  , 634.0  , 881.0  , 119.0  , 677.0  , 903.0  , 131.0  , 675.0  , 831.0  , 139.0  , 772.0  , 803.0  , 145.0  , 858.0  , 752.0  , 155.0  , 802.0  , 884.0  , 172.0  , 826.0  , 936.0  , 194.0  , 778.0  , 971.0  , 207.0  , 970.0  , 971.0  , 194.0  , 967.0  , 970.0  , 190.0  , 971.0  , 981.0  , 176.0  , 967.0  , 971.0  , 159.0  , 970.0  , 930.0  , 149.0  , 970.0  , 887.0  , 139.0  , 929.0  , 902.0  , 125.0  , 972.0  , 867.0  , 113.0  , 973.0  , 791.0  , 108.0  , 971.0  , 803.0 );
                        kernels[37] = compute_kernel(x,   82.0  , 132.0  , 133.0  , 80.0  , 135.0  , 130.0  , 78.0  , 131.0  , 126.0  , 74.0  , 130.0  , 124.0  , 70.0  , 127.0  , 120.0  , 71.0  , 144.0  , 121.0  , 67.0  , 145.0  , 114.0  , 66.0  , 143.0  , 113.0  , 65.0  , 137.0  , 116.0  , 64.0  , 139.0  , 113.0  , 63.0  , 138.0  , 111.0  , 62.0  , 140.0  , 113.0  , 62.0  , 134.0  , 116.0  , 64.0  , 139.0  , 117.0  , 67.0  , 136.0  , 118.0  , 66.0  , 142.0  , 113.0  , 68.0  , 150.0  , 119.0  , 68.0  , 155.0  , 117.0  , 69.0  , 159.0  , 153.0  , 72.0  , 164.0  , 196.0  , 69.0  , 157.0  , 202.0  , 66.0  , 155.0  , 200.0  , 66.0  , 155.0  , 217.0  , 65.0  , 173.0  , 202.0  , 62.0  , 183.0  , 244.0  , 62.0  , 182.0  , 259.0  , 61.0  , 183.0  , 263.0  , 63.0  , 180.0  , 253.0  , 65.0  , 180.0  , 244.0  , 64.0  , 177.0  , 252.0  , 64.0  , 174.0  , 241.0  , 64.0  , 177.0  , 245.0  , 63.0  , 174.0  , 275.0  , 66.0  , 194.0  , 339.0  , 65.0  , 202.0  , 374.0  , 63.0  , 190.0  , 351.0  , 63.0  , 195.0  , 328.0  , 62.0  , 189.0  , 320.0  , 63.0  , 195.0  , 333.0  , 66.0  , 186.0  , 324.0  , 66.0  , 185.0  , 283.0  , 69.0  , 181.0  , 281.0  , 67.0  , 178.0  , 304.0  , 69.0  , 172.0  , 295.0  , 69.0  , 167.0  , 303.0  , 67.0  , 166.0  , 304.0  , 67.0  , 163.0  , 334.0  , 67.0  , 160.0  , 363.0  , 65.0  , 161.0  , 347.0  , 67.0  , 155.0  , 339.0  , 68.0  , 178.0  , 332.0  , 66.0  , 178.0  , 308.0  , 66.0  , 172.0  , 304.0  , 61.0  , 173.0  , 306.0  , 64.0  , 168.0  , 299.0  , 65.0  , 172.0  , 289.0  , 64.0  , 169.0  , 309.0  , 65.0  , 171.0  , 302.0  , 70.0  , 189.0  , 293.0  , 79.0  , 202.0  , 275.0  , 84.0  , 201.0  , 266.0  , 100.0  , 199.0  , 253.0  , 111.0  , 203.0  , 257.0  , 118.0  , 205.0  , 246.0  , 120.0  , 232.0  , 255.0  , 127.0  , 228.0  , 262.0  , 144.0  , 235.0  , 246.0  , 150.0  , 241.0  , 237.0  , 152.0  , 239.0  , 218.0  , 150.0  , 234.0  , 215.0  , 140.0  , 229.0  , 237.0  , 134.0  , 236.0  , 255.0  , 125.0  , 253.0  , 254.0  , 116.0  , 265.0  , 254.0  , 112.0  , 262.0  , 243.0  , 103.0  , 250.0  , 236.0  , 98.0  , 245.0  , 251.0  , 93.0  , 255.0  , 243.0  , 86.0  , 275.0  , 262.0  , 88.0  , 278.0  , 278.0  , 84.0  , 277.0  , 284.0  , 83.0  , 256.0  , 287.0  , 78.0  , 263.0  , 303.0  , 79.0  , 266.0  , 287.0  , 75.0  , 255.0  , 332.0  , 75.0  , 290.0  , 324.0  , 76.0  , 330.0  , 351.0  , 74.0  , 374.0  , 402.0  , 130.0  , 362.0  , 468.0  , 132.0  , 367.0  , 655.0 );
                        kernels[38] = compute_kernel(x,   61.0  , 231.0  , 348.0  , 59.0  , 235.0  , 342.0  , 62.0  , 233.0  , 342.0  , 63.0  , 235.0  , 338.0  , 64.0  , 235.0  , 329.0  , 66.0  , 230.0  , 328.0  , 69.0  , 234.0  , 320.0  , 69.0  , 224.0  , 317.0  , 73.0  , 225.0  , 318.0  , 75.0  , 222.0  , 314.0  , 77.0  , 223.0  , 314.0  , 85.0  , 238.0  , 306.0  , 84.0  , 233.0  , 309.0  , 87.0  , 228.0  , 304.0  , 88.0  , 232.0  , 296.0  , 86.0  , 231.0  , 294.0  , 89.0  , 234.0  , 285.0  , 89.0  , 226.0  , 288.0  , 88.0  , 227.0  , 289.0  , 88.0  , 228.0  , 288.0  , 88.0  , 226.0  , 289.0  , 90.0  , 231.0  , 287.0  , 84.0  , 224.0  , 297.0  , 84.0  , 229.0  , 293.0  , 81.0  , 230.0  , 293.0  , 77.0  , 229.0  , 286.0  , 79.0  , 228.0  , 278.0  , 73.0  , 216.0  , 269.0  , 73.0  , 218.0  , 256.0  , 68.0  , 214.0  , 243.0  , 68.0  , 211.0  , 231.0  , 63.0  , 202.0  , 218.0  , 61.0  , 208.0  , 207.0  , 62.0  , 203.0  , 197.0  , 61.0  , 195.0  , 184.0  , 58.0  , 193.0  , 180.0  , 57.0  , 191.0  , 175.0  , 57.0  , 184.0  , 173.0  , 55.0  , 176.0  , 165.0  , 54.0  , 174.0  , 163.0  , 54.0  , 177.0  , 161.0  , 53.0  , 184.0  , 154.0  , 52.0  , 177.0  , 164.0  , 55.0  , 176.0  , 156.0  , 53.0  , 183.0  , 159.0  , 56.0  , 174.0  , 155.0  , 59.0  , 175.0  , 151.0  , 58.0  , 172.0  , 160.0  , 63.0  , 170.0  , 167.0  , 66.0  , 171.0  , 163.0  , 68.0  , 171.0  , 163.0  , 75.0  , 167.0  , 157.0  , 73.0  , 162.0  , 166.0  , 77.0  , 175.0  , 163.0  , 75.0  , 185.0  , 158.0  , 75.0  , 190.0  , 161.0  , 73.0  , 186.0  , 160.0  , 69.0  , 210.0  , 148.0  , 73.0  , 222.0  , 163.0  , 76.0  , 238.0  , 162.0  , 77.0  , 262.0  , 162.0  , 84.0  , 275.0  , 157.0  , 81.0  , 306.0  , 159.0  , 88.0  , 292.0  , 172.0  , 90.0  , 301.0  , 163.0  , 92.0  , 299.0  , 158.0  , 90.0  , 277.0  , 158.0  , 82.0  , 263.0  , 166.0  , 79.0  , 244.0  , 178.0  , 76.0  , 232.0  , 199.0  , 81.0  , 246.0  , 195.0  , 77.0  , 239.0  , 192.0  , 83.0  , 236.0  , 182.0  , 86.0  , 240.0  , 180.0  , 90.0  , 256.0  , 170.0  , 94.0  , 259.0  , 176.0  , 92.0  , 273.0  , 175.0  , 93.0  , 282.0  , 188.0  , 89.0  , 290.0  , 185.0  , 88.0  , 290.0  , 180.0  , 89.0  , 302.0  , 172.0  , 86.0  , 326.0  , 165.0  , 88.0  , 366.0  , 164.0  , 86.0  , 403.0  , 157.0  , 87.0  , 410.0  , 158.0  , 95.0  , 396.0  , 154.0  , 99.0  , 475.0  , 151.0  , 108.0  , 503.0  , 149.0  , 115.0  , 531.0  , 208.0  , 122.0  , 484.0  , 256.0 );
                        kernels[39] = compute_kernel(x,   127.0  , 141.0  , 246.0  , 124.0  , 138.0  , 239.0  , 127.0  , 137.0  , 230.0  , 124.0  , 137.0  , 229.0  , 120.0  , 132.0  , 232.0  , 118.0  , 133.0  , 235.0  , 114.0  , 132.0  , 240.0  , 117.0  , 134.0  , 242.0  , 112.0  , 131.0  , 246.0  , 115.0  , 136.0  , 242.0  , 117.0  , 152.0  , 250.0  , 110.0  , 156.0  , 277.0  , 117.0  , 176.0  , 255.0  , 116.0  , 179.0  , 242.0  , 120.0  , 185.0  , 230.0  , 127.0  , 197.0  , 218.0  , 125.0  , 199.0  , 214.0  , 133.0  , 236.0  , 203.0  , 134.0  , 249.0  , 206.0  , 137.0  , 255.0  , 224.0  , 139.0  , 271.0  , 216.0  , 131.0  , 292.0  , 214.0  , 134.0  , 316.0  , 203.0  , 128.0  , 338.0  , 210.0  , 132.0  , 358.0  , 210.0  , 138.0  , 360.0  , 235.0  , 137.0  , 377.0  , 220.0  , 144.0  , 376.0  , 208.0  , 143.0  , 370.0  , 232.0  , 142.0  , 386.0  , 223.0  , 146.0  , 380.0  , 216.0  , 143.0  , 371.0  , 271.0  , 143.0  , 405.0  , 319.0  , 143.0  , 394.0  , 337.0  , 139.0  , 386.0  , 303.0  , 146.0  , 389.0  , 313.0  , 140.0  , 373.0  , 335.0  , 142.0  , 372.0  , 310.0  , 137.0  , 359.0  , 294.0  , 135.0  , 355.0  , 279.0  , 135.0  , 332.0  , 270.0  , 131.0  , 311.0  , 252.0  , 132.0  , 300.0  , 266.0  , 127.0  , 288.0  , 266.0  , 130.0  , 277.0  , 269.0  , 133.0  , 282.0  , 265.0  , 135.0  , 323.0  , 258.0  , 146.0  , 303.0  , 248.0  , 153.0  , 299.0  , 252.0  , 160.0  , 288.0  , 257.0  , 166.0  , 276.0  , 255.0  , 168.0  , 260.0  , 267.0  , 179.0  , 265.0  , 273.0  , 189.0  , 311.0  , 296.0  , 195.0  , 310.0  , 279.0  , 195.0  , 307.0  , 285.0  , 200.0  , 315.0  , 301.0  , 203.0  , 321.0  , 306.0  , 198.0  , 314.0  , 345.0  , 183.0  , 301.0  , 312.0  , 168.0  , 288.0  , 347.0  , 150.0  , 287.0  , 338.0  , 138.0  , 304.0  , 336.0  , 140.0  , 282.0  , 342.0  , 145.0  , 267.0  , 336.0  , 160.0  , 260.0  , 346.0  , 177.0  , 255.0  , 375.0  , 202.0  , 255.0  , 376.0  , 212.0  , 263.0  , 346.0  , 226.0  , 297.0  , 345.0  , 233.0  , 299.0  , 341.0  , 248.0  , 307.0  , 390.0  , 244.0  , 340.0  , 356.0  , 246.0  , 313.0  , 366.0  , 253.0  , 312.0  , 348.0  , 270.0  , 327.0  , 326.0  , 287.0  , 314.0  , 381.0  , 297.0  , 306.0  , 368.0  , 311.0  , 303.0  , 372.0  , 328.0  , 301.0  , 353.0  , 333.0  , 286.0  , 351.0  , 341.0  , 366.0  , 389.0  , 352.0  , 343.0  , 377.0  , 362.0  , 320.0  , 414.0  , 363.0  , 293.0  , 431.0  , 367.0  , 321.0  , 450.0  , 373.0  , 319.0  , 577.0  , 387.0  , 304.0  , 659.0  , 384.0  , 294.0  , 782.0  , 377.0  , 323.0  , 775.0 );
